<?xml version="1.0" encoding="utf-8"?>
<Root>
  <ActivationFunctions>
    <Fn id="0" name="Linear" prob="0.1" />
    <Fn id="1" name="Sine" prob="0.1" />
    <Fn id="2" name="ArcTan" prob="0.1" />
    <Fn id="3" name="BipolarGaussian" prob="0.1" />
    <Fn id="4" name="BipolarSigmoid" prob="0.1" />
    <Fn id="5" name="LogisticFunction" prob="0.1" />
    <Fn id="6" name="QuadraticSigmoid" prob="0.1" />
    <Fn id="7" name="TanH" prob="0.1" />
    <Fn id="8" name="ArcSinH" prob="0.1" />
    <Fn id="9" name="ReLU" prob="0.1" />
  </ActivationFunctions>
  <Networks>
    <Network id="0" birthGen="0" fitness="0">
      <Nodes>
        <Node type="bias" id="0" fnId="0" />
        <Node type="in" id="1" fnId="0" />
        <Node type="in" id="2" fnId="0" />
        <Node type="in" id="3" fnId="0" />
        <Node type="out" id="4" fnId="0" />
        <Node type="out" id="5" fnId="0" />
        <Node type="out" id="6" fnId="0" />
        <Node type="out" id="7" fnId="0" />
        <Node type="out" id="8" fnId="0" />
      </Nodes>
      <Connections>
        <Con id="9" src="0" tgt="4" wght="1.9599541277714017" />
        <Con id="10" src="0" tgt="5" wght="-4.6897014671934656" />
        <Con id="11" src="0" tgt="6" wght="2.2093229200699147" />
        <Con id="12" src="0" tgt="7" wght="2.0879850204238037" />
        <Con id="13" src="0" tgt="8" wght="-4.7147699829891732" />
        <Con id="14" src="1" tgt="4" wght="-0.643365684418703" />
        <Con id="15" src="1" tgt="5" wght="4.2775808859114983" />
        <Con id="16" src="1" tgt="6" wght="3.3144557585688492" />
        <Con id="17" src="1" tgt="7" wght="-2.2424035327030833" />
        <Con id="18" src="1" tgt="8" wght="0.80118466016182777" />
        <Con id="19" src="2" tgt="4" wght="-4.75030364103019" />
        <Con id="20" src="2" tgt="5" wght="-2.3098288219739649" />
        <Con id="21" src="2" tgt="6" wght="3.9715336279813362" />
        <Con id="22" src="2" tgt="7" wght="-2.30415705707971" />
        <Con id="23" src="2" tgt="8" wght="-1.95599058815344" />
        <Con id="24" src="3" tgt="4" wght="2.293405804167997" />
        <Con id="25" src="3" tgt="5" wght="1.2554079769723825" />
        <Con id="26" src="3" tgt="6" wght="-0.3447727603630657" />
        <Con id="27" src="3" tgt="7" wght="-2.0355065250220084" />
        <Con id="28" src="3" tgt="8" wght="3.3851824064431724" />
      </Connections>
    </Network>
  </Networks>
</Root>