<?xml version="1.0" encoding="utf-8"?>
<Root>
  <ActivationFunctions>
    <Fn id="0" name="Linear" prob="0.1" />
    <Fn id="1" name="Sine" prob="0.1" />
    <Fn id="2" name="ArcTan" prob="0.1" />
    <Fn id="3" name="BipolarGaussian" prob="0.1" />
    <Fn id="4" name="BipolarSigmoid" prob="0.1" />
    <Fn id="5" name="LogisticFunction" prob="0.1" />
    <Fn id="6" name="QuadraticSigmoid" prob="0.1" />
    <Fn id="7" name="TanH" prob="0.1" />
    <Fn id="8" name="ArcSinH" prob="0.1" />
    <Fn id="9" name="ReLU" prob="0.1" />
  </ActivationFunctions>
  <Networks>
    <Network id="2" birthGen="0" fitness="0">
      <Nodes>
        <Node type="bias" id="0" fnId="0" />
        <Node type="in" id="1" fnId="0" />
        <Node type="in" id="2" fnId="0" />
        <Node type="in" id="3" fnId="0" />
        <Node type="out" id="4" fnId="0" />
        <Node type="out" id="5" fnId="0" />
        <Node type="out" id="6" fnId="0" />
        <Node type="out" id="7" fnId="0" />
        <Node type="out" id="8" fnId="0" />
      </Nodes>
      <Connections>
        <Con id="9" src="0" tgt="4" wght="0.71445214437227733" />
        <Con id="10" src="0" tgt="5" wght="3.6972979480875656" />
        <Con id="11" src="0" tgt="6" wght="3.6720281439165903" />
        <Con id="12" src="0" tgt="7" wght="-4.3907503217663137" />
        <Con id="13" src="0" tgt="8" wght="-3.5723082718138865" />
        <Con id="14" src="1" tgt="4" wght="2.0673939298948785" />
        <Con id="15" src="1" tgt="5" wght="-3.9153916851017478" />
        <Con id="16" src="1" tgt="6" wght="-0.40216145897345457" />
        <Con id="17" src="1" tgt="7" wght="-2.0837590608389234" />
        <Con id="18" src="1" tgt="8" wght="4.8844424959127988" />
        <Con id="19" src="2" tgt="4" wght="0.93879438317269415" />
        <Con id="20" src="2" tgt="5" wght="-2.7243576495975006" />
        <Con id="21" src="2" tgt="6" wght="-4.09228513964551" />
        <Con id="22" src="2" tgt="7" wght="-0.12505084229876395" />
        <Con id="23" src="2" tgt="8" wght="4.5262362376247891" />
        <Con id="24" src="3" tgt="4" wght="-1.1545023723354819" />
        <Con id="25" src="3" tgt="5" wght="-2.1610328851482064" />
        <Con id="26" src="3" tgt="6" wght="0.74777575350300163" />
        <Con id="27" src="3" tgt="7" wght="-1.1849734285186764" />
        <Con id="28" src="3" tgt="8" wght="4.8977088286920054" />
      </Connections>
    </Network>
  </Networks>
</Root>