<?xml version="1.0" encoding="utf-8"?>
<Root>
  <ActivationFunctions>
    <Fn id="0" name="Linear" prob="0.1" />
    <Fn id="1" name="Sine" prob="0.1" />
    <Fn id="2" name="ArcTan" prob="0.1" />
    <Fn id="3" name="BipolarGaussian" prob="0.1" />
    <Fn id="4" name="BipolarSigmoid" prob="0.1" />
    <Fn id="5" name="LogisticFunction" prob="0.1" />
    <Fn id="6" name="QuadraticSigmoid" prob="0.1" />
    <Fn id="7" name="TanH" prob="0.1" />
    <Fn id="8" name="ArcSinH" prob="0.1" />
    <Fn id="9" name="ReLU" prob="0.1" />
  </ActivationFunctions>
  <Networks>
    <Network id="3" birthGen="0" fitness="0">
      <Nodes>
        <Node type="bias" id="0" fnId="0" />
        <Node type="in" id="1" fnId="0" />
        <Node type="in" id="2" fnId="0" />
        <Node type="in" id="3" fnId="0" />
        <Node type="out" id="4" fnId="0" />
        <Node type="out" id="5" fnId="0" />
        <Node type="out" id="6" fnId="0" />
        <Node type="out" id="7" fnId="0" />
        <Node type="out" id="8" fnId="0" />
      </Nodes>
      <Connections>
        <Con id="9" src="0" tgt="4" wght="0.33987981734900474" />
        <Con id="10" src="0" tgt="5" wght="1.8986885063234082" />
        <Con id="11" src="0" tgt="6" wght="0.0006332144048348809" />
        <Con id="12" src="0" tgt="7" wght="1.7954912084301033" />
        <Con id="13" src="0" tgt="8" wght="-4.3093602891968343" />
        <Con id="14" src="1" tgt="4" wght="-0.37401963795224091" />
        <Con id="15" src="1" tgt="5" wght="3.7738380184307174" />
        <Con id="16" src="1" tgt="6" wght="-0.83196672837359875" />
        <Con id="17" src="1" tgt="7" wght="-2.1812611912800883" />
        <Con id="18" src="1" tgt="8" wght="4.2346070114708345" />
        <Con id="19" src="2" tgt="4" wght="-4.0479527021194723" />
        <Con id="20" src="2" tgt="5" wght="-4.7110890822686882" />
        <Con id="21" src="2" tgt="6" wght="3.5544518151726945" />
        <Con id="22" src="2" tgt="7" wght="-0.77687255061628435" />
        <Con id="23" src="2" tgt="8" wght="4.4168589512727054" />
        <Con id="24" src="3" tgt="4" wght="4.253931471036867" />
        <Con id="25" src="3" tgt="5" wght="-2.4099026975731883" />
        <Con id="26" src="3" tgt="6" wght="2.6398703418164637" />
        <Con id="27" src="3" tgt="7" wght="-4.2237609133259335" />
        <Con id="28" src="3" tgt="8" wght="-4.63333531717085" />
      </Connections>
    </Network>
  </Networks>
</Root>