<?xml version="1.0" encoding="utf-8"?>
<Root>
  <ActivationFunctions>
    <Fn id="0" name="Linear" prob="0.1" />
    <Fn id="1" name="Sine" prob="0.1" />
    <Fn id="2" name="ArcTan" prob="0.1" />
    <Fn id="3" name="BipolarGaussian" prob="0.1" />
    <Fn id="4" name="BipolarSigmoid" prob="0.1" />
    <Fn id="5" name="LogisticFunction" prob="0.1" />
    <Fn id="6" name="QuadraticSigmoid" prob="0.1" />
    <Fn id="7" name="TanH" prob="0.1" />
    <Fn id="8" name="ArcSinH" prob="0.1" />
    <Fn id="9" name="ReLU" prob="0.1" />
  </ActivationFunctions>
  <Networks>
    <Network id="2" birthGen="0" fitness="0">
      <Nodes>
        <Node type="bias" id="0" fnId="0" />
        <Node type="in" id="1" fnId="0" />
        <Node type="in" id="2" fnId="0" />
        <Node type="in" id="3" fnId="0" />
        <Node type="out" id="4" fnId="0" />
        <Node type="out" id="5" fnId="0" />
        <Node type="out" id="6" fnId="0" />
        <Node type="out" id="7" fnId="0" />
        <Node type="out" id="8" fnId="0" />
      </Nodes>
      <Connections>
        <Con id="9" src="0" tgt="4" wght="0.0983104791957845" />
        <Con id="10" src="0" tgt="5" wght="-1.1959408646979841" />
        <Con id="11" src="0" tgt="6" wght="-0.38252064407087616" />
        <Con id="12" src="0" tgt="7" wght="-0.75784287485537227" />
        <Con id="13" src="0" tgt="8" wght="-3.3772623616078548" />
        <Con id="14" src="1" tgt="4" wght="-2.6472163607933554" />
        <Con id="15" src="1" tgt="5" wght="1.3496604747107066" />
        <Con id="16" src="1" tgt="6" wght="-3.946319912660802" />
        <Con id="17" src="1" tgt="7" wght="-0.20012550404259977" />
        <Con id="18" src="1" tgt="8" wght="-3.1144044938710369" />
        <Con id="19" src="2" tgt="4" wght="1.4851417674556289" />
        <Con id="20" src="2" tgt="5" wght="2.7929347704422436" />
        <Con id="21" src="2" tgt="6" wght="2.0983493122813233" />
        <Con id="22" src="2" tgt="7" wght="0.29614163815236294" />
        <Con id="23" src="2" tgt="8" wght="4.3110540831934614" />
        <Con id="24" src="3" tgt="4" wght="2.2020773492783876" />
        <Con id="25" src="3" tgt="5" wght="-4.2808872302147707" />
        <Con id="26" src="3" tgt="6" wght="-3.86689782664833" />
        <Con id="27" src="3" tgt="7" wght="-4.9371472376617032" />
        <Con id="28" src="3" tgt="8" wght="3.07676773807719" />
      </Connections>
    </Network>
  </Networks>
</Root>