<?xml version="1.0" encoding="utf-8"?>
<Root>
  <ActivationFunctions>
    <Fn id="0" name="Linear" prob="0.1" />
    <Fn id="1" name="Sine" prob="0.1" />
    <Fn id="2" name="ArcTan" prob="0.1" />
    <Fn id="3" name="BipolarGaussian" prob="0.1" />
    <Fn id="4" name="BipolarSigmoid" prob="0.1" />
    <Fn id="5" name="LogisticFunction" prob="0.1" />
    <Fn id="6" name="QuadraticSigmoid" prob="0.1" />
    <Fn id="7" name="TanH" prob="0.1" />
    <Fn id="8" name="ArcSinH" prob="0.1" />
    <Fn id="9" name="ReLU" prob="0.1" />
  </ActivationFunctions>
  <Networks>
    <Network id="2" birthGen="0" fitness="0">
      <Nodes>
        <Node type="bias" id="0" fnId="0" />
        <Node type="in" id="1" fnId="0" />
        <Node type="in" id="2" fnId="0" />
        <Node type="in" id="3" fnId="0" />
        <Node type="out" id="4" fnId="0" />
        <Node type="out" id="5" fnId="0" />
        <Node type="out" id="6" fnId="0" />
        <Node type="out" id="7" fnId="0" />
        <Node type="out" id="8" fnId="0" />
      </Nodes>
      <Connections>
        <Con id="9" src="0" tgt="4" wght="-3.9382780994218427" />
        <Con id="10" src="0" tgt="5" wght="3.0557350603538911" />
        <Con id="11" src="0" tgt="6" wght="-3.9357284812393778" />
        <Con id="12" src="0" tgt="7" wght="0.13672950312824228" />
        <Con id="13" src="0" tgt="8" wght="-1.1809862601882026" />
        <Con id="14" src="1" tgt="4" wght="-4.6952738425506659" />
        <Con id="15" src="1" tgt="5" wght="1.4248286148041733" />
        <Con id="16" src="1" tgt="6" wght="-1.1743977348067836" />
        <Con id="17" src="1" tgt="7" wght="4.963337583921855" />
        <Con id="18" src="1" tgt="8" wght="-2.7221687210963" />
        <Con id="19" src="2" tgt="4" wght="-3.6448320998244679" />
        <Con id="20" src="2" tgt="5" wght="4.6557209529079042" />
        <Con id="21" src="2" tgt="6" wght="-1.0360654884493403" />
        <Con id="22" src="2" tgt="7" wght="0.54549049605543853" />
        <Con id="23" src="2" tgt="8" wght="-0.59443129586956744" />
        <Con id="24" src="3" tgt="4" wght="-3.2156275803748158" />
        <Con id="25" src="3" tgt="5" wght="4.237560257250129" />
        <Con id="26" src="3" tgt="6" wght="-3.0756042936274888" />
        <Con id="27" src="3" tgt="7" wght="2.9625452736072733" />
        <Con id="28" src="3" tgt="8" wght="-1.8913914501142404" />
      </Connections>
    </Network>
  </Networks>
</Root>