<?xml version="1.0" encoding="utf-8"?>
<Root>
  <ActivationFunctions>
    <Fn id="0" name="Linear" prob="0.1" />
    <Fn id="1" name="Sine" prob="0.1" />
    <Fn id="2" name="ArcTan" prob="0.1" />
    <Fn id="3" name="BipolarGaussian" prob="0.1" />
    <Fn id="4" name="BipolarSigmoid" prob="0.1" />
    <Fn id="5" name="LogisticFunction" prob="0.1" />
    <Fn id="6" name="QuadraticSigmoid" prob="0.1" />
    <Fn id="7" name="TanH" prob="0.1" />
    <Fn id="8" name="ArcSinH" prob="0.1" />
    <Fn id="9" name="ReLU" prob="0.1" />
  </ActivationFunctions>
  <Networks>
    <Network id="1" birthGen="0" fitness="0">
      <Nodes>
        <Node type="bias" id="0" fnId="0" />
        <Node type="in" id="1" fnId="0" />
        <Node type="in" id="2" fnId="0" />
        <Node type="in" id="3" fnId="0" />
        <Node type="out" id="4" fnId="0" />
        <Node type="out" id="5" fnId="0" />
        <Node type="out" id="6" fnId="0" />
        <Node type="out" id="7" fnId="0" />
        <Node type="out" id="8" fnId="0" />
      </Nodes>
      <Connections>
        <Con id="9" src="0" tgt="4" wght="-3.9420034165538507" />
        <Con id="10" src="0" tgt="5" wght="-0.83698304783439093" />
        <Con id="11" src="0" tgt="6" wght="-1.6487665706626919" />
        <Con id="12" src="0" tgt="7" wght="3.33241898377271" />
        <Con id="13" src="0" tgt="8" wght="4.3118854515055833" />
        <Con id="14" src="1" tgt="4" wght="3.3568463237193855" />
        <Con id="15" src="1" tgt="5" wght="3.9381444094029727" />
        <Con id="16" src="1" tgt="6" wght="3.0140757049209954" />
        <Con id="17" src="1" tgt="7" wght="-0.49076369321624069" />
        <Con id="18" src="1" tgt="8" wght="2.0263242027280413" />
        <Con id="19" src="2" tgt="4" wght="3.3812466086860726" />
        <Con id="20" src="2" tgt="5" wght="1.0539106748356986" />
        <Con id="21" src="2" tgt="6" wght="-1.9644161016737482" />
        <Con id="22" src="2" tgt="7" wght="0.485575398101844" />
        <Con id="23" src="2" tgt="8" wght="-2.8047247305708733" />
        <Con id="24" src="3" tgt="4" wght="3.5549406365657155" />
        <Con id="25" src="3" tgt="5" wght="-2.6991238924010839" />
        <Con id="26" src="3" tgt="6" wght="-3.1781560694522182" />
        <Con id="27" src="3" tgt="7" wght="0.90935213167626316" />
        <Con id="28" src="3" tgt="8" wght="-2.3739783849157647" />
      </Connections>
    </Network>
  </Networks>
</Root>