<?xml version="1.0" encoding="utf-8"?>
<Root>
  <ActivationFunctions>
    <Fn id="0" name="Linear" prob="0.1" />
    <Fn id="1" name="Sine" prob="0.1" />
    <Fn id="2" name="ArcTan" prob="0.1" />
    <Fn id="3" name="BipolarGaussian" prob="0.1" />
    <Fn id="4" name="BipolarSigmoid" prob="0.1" />
    <Fn id="5" name="LogisticFunction" prob="0.1" />
    <Fn id="6" name="QuadraticSigmoid" prob="0.1" />
    <Fn id="7" name="TanH" prob="0.1" />
    <Fn id="8" name="ArcSinH" prob="0.1" />
    <Fn id="9" name="ReLU" prob="0.1" />
  </ActivationFunctions>
  <Networks>
    <Network id="1" birthGen="0" fitness="0">
      <Nodes>
        <Node type="bias" id="0" fnId="0" />
        <Node type="in" id="1" fnId="0" />
        <Node type="in" id="2" fnId="0" />
        <Node type="in" id="3" fnId="0" />
        <Node type="out" id="4" fnId="0" />
        <Node type="out" id="5" fnId="0" />
        <Node type="out" id="6" fnId="0" />
        <Node type="out" id="7" fnId="0" />
        <Node type="out" id="8" fnId="0" />
      </Nodes>
      <Connections>
        <Con id="9" src="0" tgt="4" wght="0.70011815134965349" />
        <Con id="10" src="0" tgt="5" wght="-2.6519482869822255" />
        <Con id="11" src="0" tgt="6" wght="0.84022682237994584" />
        <Con id="12" src="0" tgt="7" wght="1.8088530926132362" />
        <Con id="13" src="0" tgt="8" wght="-0.651022564276621" />
        <Con id="14" src="1" tgt="4" wght="0.8416758379326883" />
        <Con id="15" src="1" tgt="5" wght="-1.6993093080659749" />
        <Con id="16" src="1" tgt="6" wght="-4.0414049704313806" />
        <Con id="17" src="1" tgt="7" wght="-4.7309730464933484" />
        <Con id="18" src="1" tgt="8" wght="4.9476724541314621" />
        <Con id="19" src="2" tgt="4" wght="1.0561930578023704" />
        <Con id="20" src="2" tgt="5" wght="-4.6605864928710492" />
        <Con id="21" src="2" tgt="6" wght="-2.6849120722197171" />
        <Con id="22" src="2" tgt="7" wght="0.61333506916195324" />
        <Con id="23" src="2" tgt="8" wght="-1.8467665167878988" />
        <Con id="24" src="3" tgt="4" wght="-4.2120625164161938" />
        <Con id="25" src="3" tgt="5" wght="-4.9605735648790059" />
        <Con id="26" src="3" tgt="6" wght="1.5111803264066692" />
        <Con id="27" src="3" tgt="7" wght="1.1549018203601047" />
        <Con id="28" src="3" tgt="8" wght="-2.3167639971604457" />
      </Connections>
    </Network>
  </Networks>
</Root>