<?xml version="1.0" encoding="utf-8"?>
<Root>
  <ActivationFunctions>
    <Fn id="0" name="Linear" prob="0.1" />
    <Fn id="1" name="Sine" prob="0.1" />
    <Fn id="2" name="ArcTan" prob="0.1" />
    <Fn id="3" name="BipolarGaussian" prob="0.1" />
    <Fn id="4" name="BipolarSigmoid" prob="0.1" />
    <Fn id="5" name="LogisticFunction" prob="0.1" />
    <Fn id="6" name="QuadraticSigmoid" prob="0.1" />
    <Fn id="7" name="TanH" prob="0.1" />
    <Fn id="8" name="ArcSinH" prob="0.1" />
    <Fn id="9" name="ReLU" prob="0.1" />
  </ActivationFunctions>
  <Networks>
    <Network id="1" birthGen="0" fitness="0">
      <Nodes>
        <Node type="bias" id="0" fnId="0" />
        <Node type="in" id="1" fnId="0" />
        <Node type="in" id="2" fnId="0" />
        <Node type="in" id="3" fnId="0" />
        <Node type="out" id="4" fnId="0" />
        <Node type="out" id="5" fnId="0" />
        <Node type="out" id="6" fnId="0" />
        <Node type="out" id="7" fnId="0" />
        <Node type="out" id="8" fnId="0" />
      </Nodes>
      <Connections>
        <Con id="9" src="0" tgt="4" wght="3.8775267885019939" />
        <Con id="10" src="0" tgt="5" wght="-0.50046887766289516" />
        <Con id="11" src="0" tgt="6" wght="-0.425266478093812" />
        <Con id="12" src="0" tgt="7" wght="-1.2308755919907644" />
        <Con id="13" src="0" tgt="8" wght="-1.2273633606625967" />
        <Con id="14" src="1" tgt="4" wght="4.2215529268249865" />
        <Con id="15" src="1" tgt="5" wght="-4.1311502881358884" />
        <Con id="16" src="1" tgt="6" wght="4.6433639923831773" />
        <Con id="17" src="1" tgt="7" wght="-4.5573191489524225" />
        <Con id="18" src="1" tgt="8" wght="-4.77474502757707" />
        <Con id="19" src="2" tgt="4" wght="-0.95765183284317934" />
        <Con id="20" src="2" tgt="5" wght="3.2330423722001456" />
        <Con id="21" src="2" tgt="6" wght="-3.3996045099530936" />
        <Con id="22" src="2" tgt="7" wght="-4.0985853614786469" />
        <Con id="23" src="2" tgt="8" wght="0.46502809954106605" />
        <Con id="24" src="3" tgt="4" wght="-0.26417406980815072" />
        <Con id="25" src="3" tgt="5" wght="-1.6849687068583818" />
        <Con id="26" src="3" tgt="6" wght="-4.9555011952327241" />
        <Con id="27" src="3" tgt="7" wght="-3.880709917933538" />
        <Con id="28" src="3" tgt="8" wght="-0.70722326126498536" />
      </Connections>
    </Network>
  </Networks>
</Root>