<?xml version="1.0" encoding="utf-8"?>
<Root>
  <ActivationFunctions>
    <Fn id="0" name="Linear" prob="0.1" />
    <Fn id="1" name="Sine" prob="0.1" />
    <Fn id="2" name="ArcTan" prob="0.1" />
    <Fn id="3" name="BipolarGaussian" prob="0.1" />
    <Fn id="4" name="BipolarSigmoid" prob="0.1" />
    <Fn id="5" name="LogisticFunction" prob="0.1" />
    <Fn id="6" name="QuadraticSigmoid" prob="0.1" />
    <Fn id="7" name="TanH" prob="0.1" />
    <Fn id="8" name="ArcSinH" prob="0.1" />
    <Fn id="9" name="ReLU" prob="0.1" />
  </ActivationFunctions>
  <Networks>
    <Network id="1" birthGen="0" fitness="0">
      <Nodes>
        <Node type="bias" id="0" fnId="0" />
        <Node type="in" id="1" fnId="0" />
        <Node type="in" id="2" fnId="0" />
        <Node type="in" id="3" fnId="0" />
        <Node type="out" id="4" fnId="0" />
        <Node type="out" id="5" fnId="0" />
        <Node type="out" id="6" fnId="0" />
        <Node type="out" id="7" fnId="0" />
        <Node type="out" id="8" fnId="0" />
      </Nodes>
      <Connections>
        <Con id="9" src="0" tgt="4" wght="-2.038609059779187" />
        <Con id="10" src="0" tgt="5" wght="-2.0569485551225708" />
        <Con id="11" src="0" tgt="6" wght="-2.9714512390705572" />
        <Con id="12" src="0" tgt="7" wght="-2.8891804524640072" />
        <Con id="13" src="0" tgt="8" wght="-2.9468379814668113" />
        <Con id="14" src="1" tgt="4" wght="-3.95648655883278" />
        <Con id="15" src="1" tgt="5" wght="0.79912250114039574" />
        <Con id="16" src="1" tgt="6" wght="-4.9813109524633647" />
        <Con id="17" src="1" tgt="7" wght="-3.2764298900098576" />
        <Con id="18" src="1" tgt="8" wght="-2.021258907528857" />
        <Con id="19" src="2" tgt="4" wght="2.1468458837823015" />
        <Con id="20" src="2" tgt="5" wght="-4.8625221060007053" />
        <Con id="21" src="2" tgt="6" wght="2.5481186582175175" />
        <Con id="22" src="2" tgt="7" wght="-0.96847068343690168" />
        <Con id="23" src="2" tgt="8" wght="0.46698161521026349" />
        <Con id="24" src="3" tgt="4" wght="-1.7452091671916303" />
        <Con id="25" src="3" tgt="5" wght="-2.8743393967919917" />
        <Con id="26" src="3" tgt="6" wght="-3.1379134125161459" />
        <Con id="27" src="3" tgt="7" wght="0.56837703364187364" />
        <Con id="28" src="3" tgt="8" wght="-1.9446102373834495" />
      </Connections>
    </Network>
  </Networks>
</Root>