<?xml version="1.0" encoding="utf-8"?>
<Root>
  <ActivationFunctions>
    <Fn id="0" name="Linear" prob="0.1" />
    <Fn id="1" name="Sine" prob="0.1" />
    <Fn id="2" name="ArcTan" prob="0.1" />
    <Fn id="3" name="BipolarGaussian" prob="0.1" />
    <Fn id="4" name="BipolarSigmoid" prob="0.1" />
    <Fn id="5" name="LogisticFunction" prob="0.1" />
    <Fn id="6" name="QuadraticSigmoid" prob="0.1" />
    <Fn id="7" name="TanH" prob="0.1" />
    <Fn id="8" name="ArcSinH" prob="0.1" />
    <Fn id="9" name="ReLU" prob="0.1" />
  </ActivationFunctions>
  <Networks>
    <Network id="4" birthGen="0" fitness="0">
      <Nodes>
        <Node type="bias" id="0" fnId="0" />
        <Node type="in" id="1" fnId="0" />
        <Node type="in" id="2" fnId="0" />
        <Node type="in" id="3" fnId="0" />
        <Node type="out" id="4" fnId="0" />
        <Node type="out" id="5" fnId="0" />
        <Node type="out" id="6" fnId="0" />
        <Node type="out" id="7" fnId="0" />
        <Node type="out" id="8" fnId="0" />
      </Nodes>
      <Connections>
        <Con id="9" src="0" tgt="4" wght="-1.7050062641245778" />
        <Con id="10" src="0" tgt="5" wght="-2.6809337657309684" />
        <Con id="11" src="0" tgt="6" wght="-2.5806389370145579" />
        <Con id="12" src="0" tgt="7" wght="4.8941508577501045" />
        <Con id="13" src="0" tgt="8" wght="3.0006185400853291" />
        <Con id="14" src="1" tgt="4" wght="3.4661647080778977" />
        <Con id="16" src="1" tgt="6" wght="3.5218795172059192" />
        <Con id="17" src="1" tgt="7" wght="1.9905874972120896" />
        <Con id="18" src="1" tgt="8" wght="-1.0314994773156783" />
        <Con id="19" src="2" tgt="4" wght="1.6111561189912049" />
        <Con id="20" src="2" tgt="5" wght="1.34802096962364" />
        <Con id="21" src="2" tgt="6" wght="-1.947776148552105" />
        <Con id="22" src="2" tgt="7" wght="0.73746376883565223" />
        <Con id="23" src="2" tgt="8" wght="1.3828148740836887" />
        <Con id="24" src="3" tgt="4" wght="4.7342904813607278" />
        <Con id="25" src="3" tgt="5" wght="2.9828917176883882" />
        <Con id="26" src="3" tgt="6" wght="-4.4592169536978421" />
        <Con id="27" src="3" tgt="7" wght="-3.6061289920192174" />
        <Con id="28" src="3" tgt="8" wght="-0.040615571656192895" />
      </Connections>
    </Network>
  </Networks>
</Root>