<?xml version="1.0" encoding="utf-8"?>
<Root>
  <ActivationFunctions>
    <Fn id="0" name="Linear" prob="0.1" />
    <Fn id="1" name="Sine" prob="0.1" />
    <Fn id="2" name="ArcTan" prob="0.1" />
    <Fn id="3" name="BipolarGaussian" prob="0.1" />
    <Fn id="4" name="BipolarSigmoid" prob="0.1" />
    <Fn id="5" name="LogisticFunction" prob="0.1" />
    <Fn id="6" name="QuadraticSigmoid" prob="0.1" />
    <Fn id="7" name="TanH" prob="0.1" />
    <Fn id="8" name="ArcSinH" prob="0.1" />
    <Fn id="9" name="ReLU" prob="0.1" />
  </ActivationFunctions>
  <Networks>
    <Network id="5" birthGen="0" fitness="0">
      <Nodes>
        <Node type="bias" id="0" fnId="0" />
        <Node type="in" id="1" fnId="0" />
        <Node type="in" id="2" fnId="0" />
        <Node type="in" id="3" fnId="0" />
        <Node type="out" id="4" fnId="0" />
        <Node type="out" id="5" fnId="0" />
        <Node type="out" id="6" fnId="0" />
        <Node type="out" id="7" fnId="0" />
        <Node type="out" id="8" fnId="0" />
      </Nodes>
      <Connections>
        <Con id="9" src="0" tgt="4" wght="3.6582967375478992" />
        <Con id="10" src="0" tgt="5" wght="1.9385232451160739" />
        <Con id="11" src="0" tgt="6" wght="4.2451006332900141" />
        <Con id="12" src="0" tgt="7" wght="-0.636275467405012" />
        <Con id="13" src="0" tgt="8" wght="0.39220936925002392" />
        <Con id="14" src="1" tgt="4" wght="3.9985443230194431" />
        <Con id="15" src="1" tgt="5" wght="1.7939368224160746" />
        <Con id="16" src="1" tgt="6" wght="4.53747619601468" />
        <Con id="17" src="1" tgt="7" wght="0.56548954241271043" />
        <Con id="18" src="1" tgt="8" wght="-2.7838768672630296" />
        <Con id="19" src="2" tgt="4" wght="2.0571897046022491" />
        <Con id="20" src="2" tgt="5" wght="-1.3320737911698577" />
        <Con id="21" src="2" tgt="6" wght="-1.6746250708179278" />
        <Con id="22" src="2" tgt="7" wght="-0.31873638389106951" />
        <Con id="23" src="2" tgt="8" wght="2.8402430358627861" />
        <Con id="24" src="3" tgt="4" wght="2.2101058580634469" />
        <Con id="25" src="3" tgt="5" wght="1.5477605029397412" />
        <Con id="26" src="3" tgt="6" wght="1.5116182236033193" />
        <Con id="27" src="3" tgt="7" wght="-3.8260963089504054" />
        <Con id="28" src="3" tgt="8" wght="4.1639518995939673" />
      </Connections>
    </Network>
  </Networks>
</Root>