<?xml version="1.0" encoding="utf-8"?>
<Root>
  <ActivationFunctions>
    <Fn id="0" name="Linear" prob="0.1" />
    <Fn id="1" name="Sine" prob="0.1" />
    <Fn id="2" name="ArcTan" prob="0.1" />
    <Fn id="3" name="BipolarGaussian" prob="0.1" />
    <Fn id="4" name="BipolarSigmoid" prob="0.1" />
    <Fn id="5" name="LogisticFunction" prob="0.1" />
    <Fn id="6" name="QuadraticSigmoid" prob="0.1" />
    <Fn id="7" name="TanH" prob="0.1" />
    <Fn id="8" name="ArcSinH" prob="0.1" />
    <Fn id="9" name="ReLU" prob="0.1" />
  </ActivationFunctions>
  <Networks>
    <Network id="0" birthGen="0" fitness="0">
      <Nodes>
        <Node type="bias" id="0" fnId="0" />
        <Node type="in" id="1" fnId="0" />
        <Node type="in" id="2" fnId="0" />
        <Node type="in" id="3" fnId="0" />
        <Node type="out" id="4" fnId="0" />
        <Node type="out" id="5" fnId="0" />
        <Node type="out" id="6" fnId="0" />
        <Node type="out" id="7" fnId="0" />
        <Node type="out" id="8" fnId="0" />
      </Nodes>
      <Connections>
        <Con id="9" src="0" tgt="4" wght="-4.5974820365893407" />
        <Con id="10" src="0" tgt="5" wght="2.506051068022205" />
        <Con id="11" src="0" tgt="6" wght="0.16207766656342382" />
        <Con id="12" src="0" tgt="7" wght="-4.475873046850035" />
        <Con id="13" src="0" tgt="8" wght="3.2395576036671581" />
        <Con id="14" src="1" tgt="4" wght="-4.38374372605669" />
        <Con id="15" src="1" tgt="5" wght="-2.4109511756910287" />
        <Con id="16" src="1" tgt="6" wght="4.2758357768824293" />
        <Con id="17" src="1" tgt="7" wght="4.3361783933125437" />
        <Con id="18" src="1" tgt="8" wght="-1.3562243164881616" />
        <Con id="19" src="2" tgt="4" wght="4.5960760971887975" />
        <Con id="20" src="2" tgt="5" wght="4.7047721684463237" />
        <Con id="21" src="2" tgt="6" wght="-0.63094026865948893" />
        <Con id="22" src="2" tgt="7" wght="0.32315082040648146" />
        <Con id="23" src="2" tgt="8" wght="1.6135863284761143" />
        <Con id="24" src="3" tgt="4" wght="-2.1221282039118661" />
        <Con id="25" src="3" tgt="5" wght="-3.5082573588099244" />
        <Con id="26" src="3" tgt="6" wght="1.5286564642098766" />
        <Con id="27" src="3" tgt="7" wght="-3.4665116273099326" />
        <Con id="28" src="3" tgt="8" wght="-3.3871412042598434" />
      </Connections>
    </Network>
  </Networks>
</Root>