<?xml version="1.0" encoding="utf-8"?>
<Root>
  <ActivationFunctions>
    <Fn id="0" name="Linear" prob="0.1" />
    <Fn id="1" name="Sine" prob="0.1" />
    <Fn id="2" name="ArcTan" prob="0.1" />
    <Fn id="3" name="BipolarGaussian" prob="0.1" />
    <Fn id="4" name="BipolarSigmoid" prob="0.1" />
    <Fn id="5" name="LogisticFunction" prob="0.1" />
    <Fn id="6" name="QuadraticSigmoid" prob="0.1" />
    <Fn id="7" name="TanH" prob="0.1" />
    <Fn id="8" name="ArcSinH" prob="0.1" />
    <Fn id="9" name="ReLU" prob="0.1" />
  </ActivationFunctions>
  <Networks>
    <Network id="5" birthGen="0" fitness="0">
      <Nodes>
        <Node type="bias" id="0" fnId="0" />
        <Node type="in" id="1" fnId="0" />
        <Node type="in" id="2" fnId="0" />
        <Node type="in" id="3" fnId="0" />
        <Node type="out" id="4" fnId="0" />
        <Node type="out" id="5" fnId="0" />
        <Node type="out" id="6" fnId="0" />
        <Node type="out" id="7" fnId="0" />
        <Node type="out" id="8" fnId="0" />
      </Nodes>
      <Connections>
        <Con id="9" src="0" tgt="4" wght="-1.9019629998972187" />
        <Con id="10" src="0" tgt="5" wght="4.4069322308927923" />
        <Con id="11" src="0" tgt="6" wght="3.59289681037151" />
        <Con id="12" src="0" tgt="7" wght="-1.6481970074835672" />
        <Con id="13" src="0" tgt="8" wght="-0.98709343558073814" />
        <Con id="14" src="1" tgt="4" wght="3.3088396335133039" />
        <Con id="15" src="1" tgt="5" wght="0.8082072672459728" />
        <Con id="16" src="1" tgt="6" wght="-3.0731280591964296" />
        <Con id="17" src="1" tgt="7" wght="-0.15788357875623049" />
        <Con id="18" src="1" tgt="8" wght="1.0414725904627609" />
        <Con id="19" src="2" tgt="4" wght="1.6878854896901718" />
        <Con id="20" src="2" tgt="5" wght="2.4383383153039384" />
        <Con id="21" src="2" tgt="6" wght="-2.4316479370230115" />
        <Con id="22" src="2" tgt="7" wght="-4.4742869961872325" />
        <Con id="23" src="2" tgt="8" wght="-0.84139443490138466" />
        <Con id="24" src="3" tgt="4" wght="3.9093142627795139" />
        <Con id="25" src="3" tgt="5" wght="2.6222584635709056" />
        <Con id="26" src="3" tgt="6" wght="3.149288674962091" />
        <Con id="27" src="3" tgt="7" wght="-4.5467126576291763" />
        <Con id="28" src="3" tgt="8" wght="-1.1368550641175612" />
      </Connections>
    </Network>
  </Networks>
</Root>