<?xml version="1.0" encoding="utf-8"?>
<Root>
  <ActivationFunctions>
    <Fn id="0" name="Linear" prob="0.1" />
    <Fn id="1" name="Sine" prob="0.1" />
    <Fn id="2" name="ArcTan" prob="0.1" />
    <Fn id="3" name="BipolarGaussian" prob="0.1" />
    <Fn id="4" name="BipolarSigmoid" prob="0.1" />
    <Fn id="5" name="LogisticFunction" prob="0.1" />
    <Fn id="6" name="QuadraticSigmoid" prob="0.1" />
    <Fn id="7" name="TanH" prob="0.1" />
    <Fn id="8" name="ArcSinH" prob="0.1" />
    <Fn id="9" name="ReLU" prob="0.1" />
  </ActivationFunctions>
  <Networks>
    <Network id="5" birthGen="0" fitness="0">
      <Nodes>
        <Node type="bias" id="0" fnId="0" />
        <Node type="in" id="1" fnId="0" />
        <Node type="in" id="2" fnId="0" />
        <Node type="in" id="3" fnId="0" />
        <Node type="out" id="4" fnId="0" />
        <Node type="out" id="5" fnId="0" />
        <Node type="out" id="6" fnId="0" />
        <Node type="out" id="7" fnId="0" />
        <Node type="out" id="8" fnId="0" />
      </Nodes>
      <Connections>
        <Con id="9" src="0" tgt="4" wght="3.2172825936487239" />
        <Con id="10" src="0" tgt="5" wght="-1.6266940140133557" />
        <Con id="11" src="0" tgt="6" wght="3.5393873830949363" />
        <Con id="12" src="0" tgt="7" wght="3.732561551233827" />
        <Con id="13" src="0" tgt="8" wght="1.8211259684257952" />
        <Con id="14" src="1" tgt="4" wght="-3.6386965127394486" />
        <Con id="15" src="1" tgt="5" wght="1.2955136317001581" />
        <Con id="16" src="1" tgt="6" wght="3.8905385838627615" />
        <Con id="17" src="1" tgt="7" wght="-0.86560582597077551" />
        <Con id="18" src="1" tgt="8" wght="-3.7314091986518214" />
        <Con id="19" src="2" tgt="4" wght="0.39228688263460931" />
        <Con id="20" src="2" tgt="5" wght="-4.6575298564163763" />
        <Con id="21" src="2" tgt="6" wght="-0.61499604114980455" />
        <Con id="22" src="2" tgt="7" wght="-4.7053653887110478" />
        <Con id="23" src="2" tgt="8" wght="-4.0514343826989618" />
        <Con id="24" src="3" tgt="4" wght="-4.1190531433315325" />
        <Con id="25" src="3" tgt="5" wght="-2.8914663978768287" />
        <Con id="27" src="3" tgt="7" wght="-4.1382779235688139" />
        <Con id="28" src="3" tgt="8" wght="0.0019066203397866133" />
      </Connections>
    </Network>
  </Networks>
</Root>