<?xml version="1.0" encoding="utf-8"?>
<Root>
  <ActivationFunctions>
    <Fn id="0" name="Linear" prob="0.1" />
    <Fn id="1" name="Sine" prob="0.1" />
    <Fn id="2" name="ArcTan" prob="0.1" />
    <Fn id="3" name="BipolarGaussian" prob="0.1" />
    <Fn id="4" name="BipolarSigmoid" prob="0.1" />
    <Fn id="5" name="LogisticFunction" prob="0.1" />
    <Fn id="6" name="QuadraticSigmoid" prob="0.1" />
    <Fn id="7" name="TanH" prob="0.1" />
    <Fn id="8" name="ArcSinH" prob="0.1" />
    <Fn id="9" name="ReLU" prob="0.1" />
  </ActivationFunctions>
  <Networks>
    <Network id="4" birthGen="0" fitness="0">
      <Nodes>
        <Node type="bias" id="0" fnId="0" />
        <Node type="in" id="1" fnId="0" />
        <Node type="in" id="2" fnId="0" />
        <Node type="in" id="3" fnId="0" />
        <Node type="out" id="4" fnId="0" />
        <Node type="out" id="5" fnId="0" />
        <Node type="out" id="6" fnId="0" />
        <Node type="out" id="7" fnId="0" />
        <Node type="out" id="8" fnId="0" />
      </Nodes>
      <Connections>
        <Con id="9" src="0" tgt="4" wght="1.1695503895034043" />
        <Con id="10" src="0" tgt="5" wght="2.9479979528142" />
        <Con id="11" src="0" tgt="6" wght="0.84650652427416317" />
        <Con id="12" src="0" tgt="7" wght="3.581056064507524" />
        <Con id="13" src="0" tgt="8" wght="-0.2554144817445414" />
        <Con id="14" src="1" tgt="4" wght="-0.48760284994968983" />
        <Con id="15" src="1" tgt="5" wght="-0.5752935944946258" />
        <Con id="16" src="1" tgt="6" wght="4.1798230302479364" />
        <Con id="17" src="1" tgt="7" wght="-4.8475936491141418" />
        <Con id="18" src="1" tgt="8" wght="-0.10003005591032399" />
        <Con id="19" src="2" tgt="4" wght="-3.7171445800121319" />
        <Con id="20" src="2" tgt="5" wght="4.9598631628200538" />
        <Con id="21" src="2" tgt="6" wght="1.513907466960458" />
        <Con id="22" src="2" tgt="7" wght="4.8168662418273778" />
        <Con id="23" src="2" tgt="8" wght="4.5191452088061155" />
        <Con id="24" src="3" tgt="4" wght="-1.8612095175839893" />
        <Con id="25" src="3" tgt="5" wght="4.5748982667889662" />
        <Con id="26" src="3" tgt="6" wght="3.845881034555175" />
        <Con id="27" src="3" tgt="7" wght="4.132159584636705" />
        <Con id="28" src="3" tgt="8" wght="3.6390478760267086" />
      </Connections>
    </Network>
  </Networks>
</Root>