<?xml version="1.0" encoding="utf-8"?>
<Root>
  <ActivationFunctions>
    <Fn id="0" name="Linear" prob="0.1" />
    <Fn id="1" name="Sine" prob="0.1" />
    <Fn id="2" name="ArcTan" prob="0.1" />
    <Fn id="3" name="BipolarGaussian" prob="0.1" />
    <Fn id="4" name="BipolarSigmoid" prob="0.1" />
    <Fn id="5" name="LogisticFunction" prob="0.1" />
    <Fn id="6" name="QuadraticSigmoid" prob="0.1" />
    <Fn id="7" name="TanH" prob="0.1" />
    <Fn id="8" name="ArcSinH" prob="0.1" />
    <Fn id="9" name="ReLU" prob="0.1" />
  </ActivationFunctions>
  <Networks>
    <Network id="3" birthGen="0" fitness="0">
      <Nodes>
        <Node type="bias" id="0" fnId="0" />
        <Node type="in" id="1" fnId="0" />
        <Node type="in" id="2" fnId="0" />
        <Node type="in" id="3" fnId="0" />
        <Node type="out" id="4" fnId="0" />
        <Node type="out" id="5" fnId="0" />
        <Node type="out" id="6" fnId="0" />
        <Node type="out" id="7" fnId="0" />
        <Node type="out" id="8" fnId="0" />
      </Nodes>
      <Connections>
        <Con id="9" src="0" tgt="4" wght="1.6181932354146167" />
        <Con id="10" src="0" tgt="5" wght="-0.10713965021548866" />
        <Con id="11" src="0" tgt="6" wght="-3.7238847154980093" />
        <Con id="12" src="0" tgt="7" wght="1.1227039114020743" />
        <Con id="13" src="0" tgt="8" wght="-4.7042028737653023" />
        <Con id="14" src="1" tgt="4" wght="2.6908394996364104" />
        <Con id="15" src="1" tgt="5" wght="-3.3499200501395663" />
        <Con id="16" src="1" tgt="6" wght="-2.1071537205024837" />
        <Con id="17" src="1" tgt="7" wght="-4.429914209984319" />
        <Con id="18" src="1" tgt="8" wght="4.017831033443418" />
        <Con id="19" src="2" tgt="4" wght="1.7592689484972968" />
        <Con id="20" src="2" tgt="5" wght="2.9521979178552216" />
        <Con id="21" src="2" tgt="6" wght="-1.2521716668268879" />
        <Con id="22" src="2" tgt="7" wght="-4.0846718714219534" />
        <Con id="23" src="2" tgt="8" wght="-2.5780732157900954" />
        <Con id="25" src="3" tgt="5" wght="-1.11877933503011" />
        <Con id="26" src="3" tgt="6" wght="2.6954179884326135" />
        <Con id="27" src="3" tgt="7" wght="-4.6345255273837482" />
        <Con id="28" src="3" tgt="8" wght="2.1794388894869696" />
      </Connections>
    </Network>
  </Networks>
</Root>