<?xml version="1.0" encoding="utf-8"?>
<Root>
  <ActivationFunctions>
    <Fn id="0" name="Linear" prob="0.1" />
    <Fn id="1" name="Sine" prob="0.1" />
    <Fn id="2" name="ArcTan" prob="0.1" />
    <Fn id="3" name="BipolarGaussian" prob="0.1" />
    <Fn id="4" name="BipolarSigmoid" prob="0.1" />
    <Fn id="5" name="LogisticFunction" prob="0.1" />
    <Fn id="6" name="QuadraticSigmoid" prob="0.1" />
    <Fn id="7" name="TanH" prob="0.1" />
    <Fn id="8" name="ArcSinH" prob="0.1" />
    <Fn id="9" name="ReLU" prob="0.1" />
  </ActivationFunctions>
  <Networks>
    <Network id="4" birthGen="0" fitness="0">
      <Nodes>
        <Node type="bias" id="0" fnId="0" />
        <Node type="in" id="1" fnId="0" />
        <Node type="in" id="2" fnId="0" />
        <Node type="in" id="3" fnId="0" />
        <Node type="out" id="4" fnId="0" />
        <Node type="out" id="5" fnId="0" />
        <Node type="out" id="6" fnId="0" />
        <Node type="out" id="7" fnId="0" />
        <Node type="out" id="8" fnId="0" />
      </Nodes>
      <Connections>
        <Con id="9" src="0" tgt="4" wght="-2.5521599376118562" />
        <Con id="10" src="0" tgt="5" wght="-4.9596773396748208" />
        <Con id="11" src="0" tgt="6" wght="0.99624036601242194" />
        <Con id="12" src="0" tgt="7" wght="2.8939794884285197" />
        <Con id="13" src="0" tgt="8" wght="0.44553001954072968" />
        <Con id="14" src="1" tgt="4" wght="4.6964537444468979" />
        <Con id="15" src="1" tgt="5" wght="3.1901602399735429" />
        <Con id="16" src="1" tgt="6" wght="-4.1510657297483284" />
        <Con id="17" src="1" tgt="7" wght="3.9306228939477994" />
        <Con id="18" src="1" tgt="8" wght="-1.5113894418780027" />
        <Con id="19" src="2" tgt="4" wght="1.3514582696392097" />
        <Con id="20" src="2" tgt="5" wght="-4.3488172655610056" />
        <Con id="21" src="2" tgt="6" wght="-1.2949293989652311" />
        <Con id="22" src="2" tgt="7" wght="2.1348950360339347" />
        <Con id="23" src="2" tgt="8" wght="1.7632624167192434" />
        <Con id="24" src="3" tgt="4" wght="-4.1516280177276741" />
        <Con id="25" src="3" tgt="5" wght="-3.37811164060261" />
        <Con id="26" src="3" tgt="6" wght="-4.7474879667758918" />
        <Con id="27" src="3" tgt="7" wght="-3.1639359773803766" />
        <Con id="28" src="3" tgt="8" wght="4.63204408565529" />
      </Connections>
    </Network>
  </Networks>
</Root>