<?xml version="1.0" encoding="utf-8"?>
<Root>
  <ActivationFunctions>
    <Fn id="0" name="Linear" prob="0.1" />
    <Fn id="1" name="Sine" prob="0.1" />
    <Fn id="2" name="ArcTan" prob="0.1" />
    <Fn id="3" name="BipolarGaussian" prob="0.1" />
    <Fn id="4" name="BipolarSigmoid" prob="0.1" />
    <Fn id="5" name="LogisticFunction" prob="0.1" />
    <Fn id="6" name="QuadraticSigmoid" prob="0.1" />
    <Fn id="7" name="TanH" prob="0.1" />
    <Fn id="8" name="ArcSinH" prob="0.1" />
    <Fn id="9" name="ReLU" prob="0.1" />
  </ActivationFunctions>
  <Networks>
    <Network id="4" birthGen="0" fitness="0">
      <Nodes>
        <Node type="bias" id="0" fnId="0" />
        <Node type="in" id="1" fnId="0" />
        <Node type="in" id="2" fnId="0" />
        <Node type="in" id="3" fnId="0" />
        <Node type="out" id="4" fnId="0" />
        <Node type="out" id="5" fnId="0" />
        <Node type="out" id="6" fnId="0" />
        <Node type="out" id="7" fnId="0" />
        <Node type="out" id="8" fnId="0" />
      </Nodes>
      <Connections>
        <Con id="9" src="0" tgt="4" wght="-0.51353734171892262" />
        <Con id="11" src="0" tgt="6" wght="-1.5969520476974097" />
        <Con id="12" src="0" tgt="7" wght="-1.2348538881330684" />
        <Con id="13" src="0" tgt="8" wght="1.5808635520493564" />
        <Con id="14" src="1" tgt="4" wght="-1.9626026270365249" />
        <Con id="15" src="1" tgt="5" wght="-1.8958120981702875" />
        <Con id="16" src="1" tgt="6" wght="2.9947906154476089" />
        <Con id="17" src="1" tgt="7" wght="-1.4745485951882398" />
        <Con id="19" src="2" tgt="4" wght="3.1753302183554508" />
        <Con id="20" src="2" tgt="5" wght="1.4038883667457414" />
        <Con id="21" src="2" tgt="6" wght="3.357676364533412" />
        <Con id="22" src="2" tgt="7" wght="4.2021030227152236" />
        <Con id="23" src="2" tgt="8" wght="3.1831723901913458" />
        <Con id="24" src="3" tgt="4" wght="4.6438317544040668" />
        <Con id="26" src="3" tgt="6" wght="-3.3413744737093811" />
        <Con id="28" src="3" tgt="8" wght="-1.2016562810842157" />
      </Connections>
    </Network>
  </Networks>
</Root>