<?xml version="1.0" encoding="utf-8"?>
<Root>
  <ActivationFunctions>
    <Fn id="0" name="Linear" prob="0.1" />
    <Fn id="1" name="Sine" prob="0.1" />
    <Fn id="2" name="ArcTan" prob="0.1" />
    <Fn id="3" name="BipolarGaussian" prob="0.1" />
    <Fn id="4" name="BipolarSigmoid" prob="0.1" />
    <Fn id="5" name="LogisticFunction" prob="0.1" />
    <Fn id="6" name="QuadraticSigmoid" prob="0.1" />
    <Fn id="7" name="TanH" prob="0.1" />
    <Fn id="8" name="ArcSinH" prob="0.1" />
    <Fn id="9" name="ReLU" prob="0.1" />
  </ActivationFunctions>
  <Networks>
    <Network id="4" birthGen="0" fitness="0">
      <Nodes>
        <Node type="bias" id="0" fnId="0" />
        <Node type="in" id="1" fnId="0" />
        <Node type="in" id="2" fnId="0" />
        <Node type="in" id="3" fnId="0" />
        <Node type="out" id="4" fnId="0" />
        <Node type="out" id="5" fnId="0" />
        <Node type="out" id="6" fnId="0" />
        <Node type="out" id="7" fnId="0" />
        <Node type="out" id="8" fnId="0" />
      </Nodes>
      <Connections>
        <Con id="9" src="0" tgt="4" wght="-3.8941485336776993" />
        <Con id="10" src="0" tgt="5" wght="3.20517969528019" />
        <Con id="11" src="0" tgt="6" wght="-2.8439302568507396" />
        <Con id="12" src="0" tgt="7" wght="-2.5103349339430081" />
        <Con id="13" src="0" tgt="8" wght="-1.5268698758596111" />
        <Con id="14" src="1" tgt="4" wght="1.1547284781906875" />
        <Con id="15" src="1" tgt="5" wght="4.11040227844458" />
        <Con id="16" src="1" tgt="6" wght="-3.8608629923085944" />
        <Con id="17" src="1" tgt="7" wght="4.2185117754861476" />
        <Con id="18" src="1" tgt="8" wght="3.9226538829607973" />
        <Con id="19" src="2" tgt="4" wght="-4.8386220677950114" />
        <Con id="20" src="2" tgt="5" wght="3.3542524706655796" />
        <Con id="21" src="2" tgt="6" wght="-2.3678531231244051" />
        <Con id="22" src="2" tgt="7" wght="3.44215896087836" />
        <Con id="23" src="2" tgt="8" wght="0.2036900437093081" />
        <Con id="24" src="3" tgt="4" wght="-3.2300030178304717" />
        <Con id="25" src="3" tgt="5" wght="-4.31687843214244" />
        <Con id="26" src="3" tgt="6" wght="-4.01796006519747" />
        <Con id="27" src="3" tgt="7" wght="1.6048483673220171" />
        <Con id="28" src="3" tgt="8" wght="2.488216458189596" />
      </Connections>
    </Network>
  </Networks>
</Root>