<?xml version="1.0" encoding="utf-8"?>
<Root>
  <ActivationFunctions>
    <Fn id="0" name="Linear" prob="0.1" />
    <Fn id="1" name="Sine" prob="0.1" />
    <Fn id="2" name="ArcTan" prob="0.1" />
    <Fn id="3" name="BipolarGaussian" prob="0.1" />
    <Fn id="4" name="BipolarSigmoid" prob="0.1" />
    <Fn id="5" name="LogisticFunction" prob="0.1" />
    <Fn id="6" name="QuadraticSigmoid" prob="0.1" />
    <Fn id="7" name="TanH" prob="0.1" />
    <Fn id="8" name="ArcSinH" prob="0.1" />
    <Fn id="9" name="ReLU" prob="0.1" />
  </ActivationFunctions>
  <Networks>
    <Network id="1" birthGen="0" fitness="0">
      <Nodes>
        <Node type="bias" id="0" fnId="0" />
        <Node type="in" id="1" fnId="0" />
        <Node type="in" id="2" fnId="0" />
        <Node type="in" id="3" fnId="0" />
        <Node type="out" id="4" fnId="0" />
        <Node type="out" id="5" fnId="0" />
        <Node type="out" id="6" fnId="0" />
        <Node type="out" id="7" fnId="0" />
        <Node type="out" id="8" fnId="0" />
      </Nodes>
      <Connections>
        <Con id="9" src="0" tgt="4" wght="-2.1646624476482135" />
        <Con id="10" src="0" tgt="5" wght="-0.348180860802898" />
        <Con id="11" src="0" tgt="6" wght="-2.5194779949301593" />
        <Con id="12" src="0" tgt="7" wght="2.6483355380682028" />
        <Con id="13" src="0" tgt="8" wght="4.1970247331752475" />
        <Con id="14" src="1" tgt="4" wght="0.054400466033001083" />
        <Con id="15" src="1" tgt="5" wght="-0.93821161720229918" />
        <Con id="16" src="1" tgt="6" wght="-3.9594942692815192" />
        <Con id="17" src="1" tgt="7" wght="4.2809774877172169" />
        <Con id="18" src="1" tgt="8" wght="-4.3569687710701395" />
        <Con id="19" src="2" tgt="4" wght="1.038855112837217" />
        <Con id="20" src="2" tgt="5" wght="-0.28059281251190837" />
        <Con id="21" src="2" tgt="6" wght="0.94412133307516743" />
        <Con id="22" src="2" tgt="7" wght="0.65847164616248732" />
        <Con id="23" src="2" tgt="8" wght="0.97885262867787648" />
        <Con id="24" src="3" tgt="4" wght="1.6668194682552495" />
        <Con id="25" src="3" tgt="5" wght="-1.6513900450376384" />
        <Con id="26" src="3" tgt="6" wght="-0.698605346886142" />
        <Con id="27" src="3" tgt="7" wght="-1.2510052181317355" />
        <Con id="28" src="3" tgt="8" wght="4.8347811701625343" />
      </Connections>
    </Network>
  </Networks>
</Root>