<?xml version="1.0" encoding="utf-8"?>
<Root>
  <ActivationFunctions>
    <Fn id="0" name="Linear" prob="0.1" />
    <Fn id="1" name="Sine" prob="0.1" />
    <Fn id="2" name="ArcTan" prob="0.1" />
    <Fn id="3" name="BipolarGaussian" prob="0.1" />
    <Fn id="4" name="BipolarSigmoid" prob="0.1" />
    <Fn id="5" name="LogisticFunction" prob="0.1" />
    <Fn id="6" name="QuadraticSigmoid" prob="0.1" />
    <Fn id="7" name="TanH" prob="0.1" />
    <Fn id="8" name="ArcSinH" prob="0.1" />
    <Fn id="9" name="ReLU" prob="0.1" />
  </ActivationFunctions>
  <Networks>
    <Network id="15" birthGen="1" fitness="0">
      <Nodes>
        <Node type="bias" id="0" fnId="0" />
        <Node type="in" id="1" fnId="0" />
        <Node type="in" id="2" fnId="0" />
        <Node type="in" id="3" fnId="0" />
        <Node type="out" id="4" fnId="0" />
        <Node type="out" id="5" fnId="0" />
        <Node type="out" id="6" fnId="0" />
        <Node type="out" id="7" fnId="0" />
        <Node type="out" id="8" fnId="0" />
        <Node type="hid" id="32" fnId="8" />
      </Nodes>
      <Connections>
        <Con id="9" src="0" tgt="4" wght="0.93884792940046258" />
        <Con id="10" src="0" tgt="5" wght="-1.3095565421699218" />
        <Con id="11" src="0" tgt="6" wght="-1.8800494739495022" />
        <Con id="12" src="0" tgt="7" wght="-1.8176170123624869" />
        <Con id="13" src="0" tgt="8" wght="1.6769165415320708" />
        <Con id="14" src="1" tgt="4" wght="4.9390302505548" />
        <Con id="17" src="1" tgt="7" wght="-1.6713766816266185" />
        <Con id="18" src="1" tgt="8" wght="0.099460419924565224" />
        <Con id="19" src="2" tgt="4" wght="-4.309184205326523" />
        <Con id="22" src="2" tgt="7" wght="-1.7419846927245208" />
        <Con id="23" src="2" tgt="8" wght="4.6056430768591161" />
        <Con id="24" src="3" tgt="4" wght="-4.5235690991699506" />
        <Con id="26" src="3" tgt="6" wght="-3.6774016966982135" />
        <Con id="27" src="3" tgt="7" wght="-0.40439242177112478" />
        <Con id="28" src="3" tgt="8" wght="0.49726783354263837" />
        <Con id="33" src="3" tgt="32" wght="4.49071964802198" />
        <Con id="34" src="32" tgt="5" wght="5" />
      </Connections>
    </Network>
  </Networks>
</Root>