<?xml version="1.0" encoding="utf-8"?>
<Root>
  <ActivationFunctions>
    <Fn id="0" name="Linear" prob="0.1" />
    <Fn id="1" name="Sine" prob="0.1" />
    <Fn id="2" name="ArcTan" prob="0.1" />
    <Fn id="3" name="BipolarGaussian" prob="0.1" />
    <Fn id="4" name="BipolarSigmoid" prob="0.1" />
    <Fn id="5" name="LogisticFunction" prob="0.1" />
    <Fn id="6" name="QuadraticSigmoid" prob="0.1" />
    <Fn id="7" name="TanH" prob="0.1" />
    <Fn id="8" name="ArcSinH" prob="0.1" />
    <Fn id="9" name="ReLU" prob="0.1" />
  </ActivationFunctions>
  <Networks>
    <Network id="6" birthGen="0" fitness="0">
      <Nodes>
        <Node type="bias" id="0" fnId="0" />
        <Node type="in" id="1" fnId="0" />
        <Node type="in" id="2" fnId="0" />
        <Node type="in" id="3" fnId="0" />
        <Node type="out" id="4" fnId="0" />
        <Node type="out" id="5" fnId="0" />
        <Node type="out" id="6" fnId="0" />
        <Node type="out" id="7" fnId="0" />
        <Node type="out" id="8" fnId="0" />
      </Nodes>
      <Connections>
        <Con id="9" src="0" tgt="4" wght="-0.85606111560060594" />
        <Con id="10" src="0" tgt="5" wght="1.3575914913273979" />
        <Con id="11" src="0" tgt="6" wght="-4.2955103532547039" />
        <Con id="13" src="0" tgt="8" wght="-1.8560724734420564" />
        <Con id="14" src="1" tgt="4" wght="1.4241676776589873" />
        <Con id="15" src="1" tgt="5" wght="3.2364530877704647" />
        <Con id="16" src="1" tgt="6" wght="2.6359188992142" />
        <Con id="17" src="1" tgt="7" wght="1.0798663801984443" />
        <Con id="18" src="1" tgt="8" wght="-0.4544948307668073" />
        <Con id="19" src="2" tgt="4" wght="-2.9326500756047116" />
        <Con id="20" src="2" tgt="5" wght="1.4702705232048907" />
        <Con id="21" src="2" tgt="6" wght="-4.7592695705802583" />
        <Con id="22" src="2" tgt="7" wght="1.3963734342504119" />
        <Con id="23" src="2" tgt="8" wght="0.28798829539556703" />
        <Con id="25" src="3" tgt="5" wght="-4.1908263998931314" />
        <Con id="28" src="3" tgt="8" wght="-2.63697584316952" />
      </Connections>
    </Network>
  </Networks>
</Root>