<?xml version="1.0" encoding="utf-8"?>
<Root>
  <ActivationFunctions>
    <Fn id="0" name="Linear" prob="0.1" />
    <Fn id="1" name="Sine" prob="0.1" />
    <Fn id="2" name="ArcTan" prob="0.1" />
    <Fn id="3" name="BipolarGaussian" prob="0.1" />
    <Fn id="4" name="BipolarSigmoid" prob="0.1" />
    <Fn id="5" name="LogisticFunction" prob="0.1" />
    <Fn id="6" name="QuadraticSigmoid" prob="0.1" />
    <Fn id="7" name="TanH" prob="0.1" />
    <Fn id="8" name="ArcSinH" prob="0.1" />
    <Fn id="9" name="ReLU" prob="0.1" />
  </ActivationFunctions>
  <Networks>
    <Network id="7" birthGen="0" fitness="0">
      <Nodes>
        <Node type="bias" id="0" fnId="0" />
        <Node type="in" id="1" fnId="0" />
        <Node type="in" id="2" fnId="0" />
        <Node type="in" id="3" fnId="0" />
        <Node type="out" id="4" fnId="0" />
        <Node type="out" id="5" fnId="0" />
        <Node type="out" id="6" fnId="0" />
        <Node type="out" id="7" fnId="0" />
        <Node type="out" id="8" fnId="0" />
      </Nodes>
      <Connections>
        <Con id="9" src="0" tgt="4" wght="4.0304900716272263" />
        <Con id="10" src="0" tgt="5" wght="3.5408740434465469" />
        <Con id="11" src="0" tgt="6" wght="-1.2676626381074352" />
        <Con id="12" src="0" tgt="7" wght="3.5041181748921932" />
        <Con id="13" src="0" tgt="8" wght="-0.89335225299171817" />
        <Con id="14" src="1" tgt="4" wght="-3.9055544758714977" />
        <Con id="15" src="1" tgt="5" wght="3.8964663618503859" />
        <Con id="18" src="1" tgt="8" wght="2.4402421051822931" />
        <Con id="19" src="2" tgt="4" wght="1.7369208202190634" />
        <Con id="20" src="2" tgt="5" wght="0.66080930563336748" />
        <Con id="22" src="2" tgt="7" wght="-1.9947565907447551" />
        <Con id="23" src="2" tgt="8" wght="4.4185143009800019" />
        <Con id="24" src="3" tgt="4" wght="-0.04810065563522592" />
        <Con id="25" src="3" tgt="5" wght="3.9539020052262019" />
        <Con id="26" src="3" tgt="6" wght="4.8118493350619005" />
        <Con id="28" src="3" tgt="8" wght="1.6944380727243069" />
      </Connections>
    </Network>
  </Networks>
</Root>