<?xml version="1.0" encoding="utf-8"?>
<Root>
  <ActivationFunctions>
    <Fn id="0" name="Linear" prob="0.1" />
    <Fn id="1" name="Sine" prob="0.1" />
    <Fn id="2" name="ArcTan" prob="0.1" />
    <Fn id="3" name="BipolarGaussian" prob="0.1" />
    <Fn id="4" name="BipolarSigmoid" prob="0.1" />
    <Fn id="5" name="LogisticFunction" prob="0.1" />
    <Fn id="6" name="QuadraticSigmoid" prob="0.1" />
    <Fn id="7" name="TanH" prob="0.1" />
    <Fn id="8" name="ArcSinH" prob="0.1" />
    <Fn id="9" name="ReLU" prob="0.1" />
  </ActivationFunctions>
  <Networks>
    <Network id="1" birthGen="0" fitness="0">
      <Nodes>
        <Node type="bias" id="0" fnId="0" />
        <Node type="in" id="1" fnId="0" />
        <Node type="in" id="2" fnId="0" />
        <Node type="in" id="3" fnId="0" />
        <Node type="out" id="4" fnId="0" />
        <Node type="out" id="5" fnId="0" />
        <Node type="out" id="6" fnId="0" />
        <Node type="out" id="7" fnId="0" />
        <Node type="out" id="8" fnId="0" />
      </Nodes>
      <Connections>
        <Con id="9" src="0" tgt="4" wght="3.000545754549524" />
        <Con id="10" src="0" tgt="5" wght="-2.2036347357489241" />
        <Con id="11" src="0" tgt="6" wght="-1.27557319716185" />
        <Con id="12" src="0" tgt="7" wght="3.8594312249382168" />
        <Con id="13" src="0" tgt="8" wght="-0.20397175530946332" />
        <Con id="14" src="1" tgt="4" wght="4.8334500072746547" />
        <Con id="15" src="1" tgt="5" wght="-1.5373146732142096" />
        <Con id="16" src="1" tgt="6" wght="-0.92824786085861977" />
        <Con id="17" src="1" tgt="7" wght="2.7351038557283558" />
        <Con id="18" src="1" tgt="8" wght="-4.9075933278083683" />
        <Con id="19" src="2" tgt="4" wght="0.23058271110839579" />
        <Con id="20" src="2" tgt="5" wght="4.1300749257260607" />
        <Con id="21" src="2" tgt="6" wght="2.4798413550167742" />
        <Con id="22" src="2" tgt="7" wght="4.074567539659629" />
        <Con id="23" src="2" tgt="8" wght="1.0769304511183564" />
        <Con id="24" src="3" tgt="4" wght="0.84952771920758674" />
        <Con id="25" src="3" tgt="5" wght="0.47064107901114371" />
        <Con id="26" src="3" tgt="6" wght="-4.4198377997029725" />
        <Con id="27" src="3" tgt="7" wght="0.580023033477699" />
        <Con id="28" src="3" tgt="8" wght="-2.388406871442712" />
      </Connections>
    </Network>
  </Networks>
</Root>