<?xml version="1.0" encoding="utf-8"?>
<Root>
  <ActivationFunctions>
    <Fn id="0" name="Linear" prob="0.1" />
    <Fn id="1" name="Sine" prob="0.1" />
    <Fn id="2" name="ArcTan" prob="0.1" />
    <Fn id="3" name="BipolarGaussian" prob="0.1" />
    <Fn id="4" name="BipolarSigmoid" prob="0.1" />
    <Fn id="5" name="LogisticFunction" prob="0.1" />
    <Fn id="6" name="QuadraticSigmoid" prob="0.1" />
    <Fn id="7" name="TanH" prob="0.1" />
    <Fn id="8" name="ArcSinH" prob="0.1" />
    <Fn id="9" name="ReLU" prob="0.1" />
  </ActivationFunctions>
  <Networks>
    <Network id="3" birthGen="0" fitness="0">
      <Nodes>
        <Node type="bias" id="0" fnId="0" />
        <Node type="in" id="1" fnId="0" />
        <Node type="in" id="2" fnId="0" />
        <Node type="in" id="3" fnId="0" />
        <Node type="out" id="4" fnId="0" />
        <Node type="out" id="5" fnId="0" />
        <Node type="out" id="6" fnId="0" />
        <Node type="out" id="7" fnId="0" />
        <Node type="out" id="8" fnId="0" />
      </Nodes>
      <Connections>
        <Con id="9" src="0" tgt="4" wght="-1.8196610399582314" />
        <Con id="10" src="0" tgt="5" wght="0.14960495339667035" />
        <Con id="11" src="0" tgt="6" wght="0.66387891615407035" />
        <Con id="12" src="0" tgt="7" wght="-3.3901823059594927" />
        <Con id="13" src="0" tgt="8" wght="-3.6088218205517797" />
        <Con id="14" src="1" tgt="4" wght="-3.72467791279386" />
        <Con id="15" src="1" tgt="5" wght="0.041618940163290485" />
        <Con id="16" src="1" tgt="6" wght="2.312233723493744" />
        <Con id="17" src="1" tgt="7" wght="-0.39494596155094319" />
        <Con id="18" src="1" tgt="8" wght="1.4135291431598707" />
        <Con id="19" src="2" tgt="4" wght="1.442426448042311" />
        <Con id="20" src="2" tgt="5" wght="-1.6693876030536148" />
        <Con id="21" src="2" tgt="6" wght="1.6922991421740674" />
        <Con id="22" src="2" tgt="7" wght="-1.9784251219820226" />
        <Con id="23" src="2" tgt="8" wght="4.7450564705851148" />
        <Con id="24" src="3" tgt="4" wght="-1.2257133680365495" />
        <Con id="25" src="3" tgt="5" wght="-3.3284796677687769" />
        <Con id="26" src="3" tgt="6" wght="4.4476853120564641" />
        <Con id="27" src="3" tgt="7" wght="-0.91348403588722538" />
        <Con id="28" src="3" tgt="8" wght="-0.94825583833302307" />
      </Connections>
    </Network>
  </Networks>
</Root>