<?xml version="1.0" encoding="utf-8"?>
<Root>
  <ActivationFunctions>
    <Fn id="0" name="Linear" prob="0.1" />
    <Fn id="1" name="Sine" prob="0.1" />
    <Fn id="2" name="ArcTan" prob="0.1" />
    <Fn id="3" name="BipolarGaussian" prob="0.1" />
    <Fn id="4" name="BipolarSigmoid" prob="0.1" />
    <Fn id="5" name="LogisticFunction" prob="0.1" />
    <Fn id="6" name="QuadraticSigmoid" prob="0.1" />
    <Fn id="7" name="TanH" prob="0.1" />
    <Fn id="8" name="ArcSinH" prob="0.1" />
    <Fn id="9" name="ReLU" prob="0.1" />
  </ActivationFunctions>
  <Networks>
    <Network id="4" birthGen="0" fitness="0">
      <Nodes>
        <Node type="bias" id="0" fnId="0" />
        <Node type="in" id="1" fnId="0" />
        <Node type="in" id="2" fnId="0" />
        <Node type="in" id="3" fnId="0" />
        <Node type="out" id="4" fnId="0" />
        <Node type="out" id="5" fnId="0" />
        <Node type="out" id="6" fnId="0" />
        <Node type="out" id="7" fnId="0" />
        <Node type="out" id="8" fnId="0" />
      </Nodes>
      <Connections>
        <Con id="9" src="0" tgt="4" wght="4.3232565985017057" />
        <Con id="10" src="0" tgt="5" wght="0.31366222031295132" />
        <Con id="11" src="0" tgt="6" wght="-1.521123721020462" />
        <Con id="12" src="0" tgt="7" wght="3.6299991788730246" />
        <Con id="13" src="0" tgt="8" wght="-4.27582631976573" />
        <Con id="14" src="1" tgt="4" wght="-2.8707554367593535" />
        <Con id="15" src="1" tgt="5" wght="1.6643596007249783" />
        <Con id="16" src="1" tgt="6" wght="-4.0763682408384794" />
        <Con id="17" src="1" tgt="7" wght="-4.7080183648400267" />
        <Con id="18" src="1" tgt="8" wght="-0.59318412613099447" />
        <Con id="19" src="2" tgt="4" wght="-2.6062932478491163" />
        <Con id="20" src="2" tgt="5" wght="3.0905663525143003" />
        <Con id="21" src="2" tgt="6" wght="1.7495294893331592" />
        <Con id="23" src="2" tgt="8" wght="-0.088627000167886827" />
        <Con id="24" src="3" tgt="4" wght="-2.2991355988308957" />
        <Con id="25" src="3" tgt="5" wght="4.4669214419920227" />
        <Con id="26" src="3" tgt="6" wght="-0.691021354483562" />
        <Con id="27" src="3" tgt="7" wght="-2.9044483635365137" />
        <Con id="28" src="3" tgt="8" wght="-3.3552332442288133" />
      </Connections>
    </Network>
  </Networks>
</Root>