<?xml version="1.0" encoding="utf-8"?>
<Root>
  <ActivationFunctions>
    <Fn id="0" name="Linear" prob="0.1" />
    <Fn id="1" name="Sine" prob="0.1" />
    <Fn id="2" name="ArcTan" prob="0.1" />
    <Fn id="3" name="BipolarGaussian" prob="0.1" />
    <Fn id="4" name="BipolarSigmoid" prob="0.1" />
    <Fn id="5" name="LogisticFunction" prob="0.1" />
    <Fn id="6" name="QuadraticSigmoid" prob="0.1" />
    <Fn id="7" name="TanH" prob="0.1" />
    <Fn id="8" name="ArcSinH" prob="0.1" />
    <Fn id="9" name="ReLU" prob="0.1" />
  </ActivationFunctions>
  <Networks>
    <Network id="0" birthGen="0" fitness="0">
      <Nodes>
        <Node type="bias" id="0" fnId="0" />
        <Node type="in" id="1" fnId="0" />
        <Node type="in" id="2" fnId="0" />
        <Node type="in" id="3" fnId="0" />
        <Node type="out" id="4" fnId="0" />
        <Node type="out" id="5" fnId="0" />
        <Node type="out" id="6" fnId="0" />
        <Node type="out" id="7" fnId="0" />
        <Node type="out" id="8" fnId="0" />
      </Nodes>
      <Connections>
        <Con id="9" src="0" tgt="4" wght="0.41864772609376266" />
        <Con id="10" src="0" tgt="5" wght="-1.5180736383860627" />
        <Con id="11" src="0" tgt="6" wght="-2.0726505046498711" />
        <Con id="12" src="0" tgt="7" wght="-4.9984468107969491" />
        <Con id="13" src="0" tgt="8" wght="3.6098425730847437" />
        <Con id="14" src="1" tgt="4" wght="-0.46571079285741335" />
        <Con id="15" src="1" tgt="5" wght="-4.6246855316194244" />
        <Con id="16" src="1" tgt="6" wght="0.67070742568938524" />
        <Con id="17" src="1" tgt="7" wght="0.74862377068774855" />
        <Con id="18" src="1" tgt="8" wght="3.8986053759436459" />
        <Con id="19" src="2" tgt="4" wght="0.43431836888609521" />
        <Con id="20" src="2" tgt="5" wght="-3.1527945505056367" />
        <Con id="21" src="2" tgt="6" wght="4.4924270384538705" />
        <Con id="22" src="2" tgt="7" wght="-3.9016123701736927" />
        <Con id="23" src="2" tgt="8" wght="2.4592875348870455" />
        <Con id="24" src="3" tgt="4" wght="2.8249184798599778" />
        <Con id="25" src="3" tgt="5" wght="2.1005476445749585" />
        <Con id="26" src="3" tgt="6" wght="2.8665196586722619" />
        <Con id="27" src="3" tgt="7" wght="1.8398143734844685" />
        <Con id="28" src="3" tgt="8" wght="-4.2780313670727761" />
      </Connections>
    </Network>
  </Networks>
</Root>