<?xml version="1.0" encoding="utf-8"?>
<Root>
  <ActivationFunctions>
    <Fn id="0" name="Linear" prob="0.1" />
    <Fn id="1" name="Sine" prob="0.1" />
    <Fn id="2" name="ArcTan" prob="0.1" />
    <Fn id="3" name="BipolarGaussian" prob="0.1" />
    <Fn id="4" name="BipolarSigmoid" prob="0.1" />
    <Fn id="5" name="LogisticFunction" prob="0.1" />
    <Fn id="6" name="QuadraticSigmoid" prob="0.1" />
    <Fn id="7" name="TanH" prob="0.1" />
    <Fn id="8" name="ArcSinH" prob="0.1" />
    <Fn id="9" name="ReLU" prob="0.1" />
  </ActivationFunctions>
  <Networks>
    <Network id="1" birthGen="0" fitness="0">
      <Nodes>
        <Node type="bias" id="0" fnId="0" />
        <Node type="in" id="1" fnId="0" />
        <Node type="in" id="2" fnId="0" />
        <Node type="in" id="3" fnId="0" />
        <Node type="out" id="4" fnId="0" />
        <Node type="out" id="5" fnId="0" />
        <Node type="out" id="6" fnId="0" />
        <Node type="out" id="7" fnId="0" />
        <Node type="out" id="8" fnId="0" />
      </Nodes>
      <Connections>
        <Con id="10" src="0" tgt="5" wght="-2.4277174726067763" />
        <Con id="11" src="0" tgt="6" wght="2.6224633898396279" />
        <Con id="12" src="0" tgt="7" wght="-4.2094413196643332" />
        <Con id="13" src="0" tgt="8" wght="-4.5874406372369414" />
        <Con id="14" src="1" tgt="4" wght="1.8458904110859964" />
        <Con id="15" src="1" tgt="5" wght="-4.6260295652572" />
        <Con id="16" src="1" tgt="6" wght="0.54471883058989867" />
        <Con id="17" src="1" tgt="7" wght="-3.7125642606089349" />
        <Con id="18" src="1" tgt="8" wght="-0.93001505113655125" />
        <Con id="19" src="2" tgt="4" wght="0.30473512441389961" />
        <Con id="20" src="2" tgt="5" wght="-3.3134680885957488" />
        <Con id="21" src="2" tgt="6" wght="2.6249236486144945" />
        <Con id="22" src="2" tgt="7" wght="2.789467655796396" />
        <Con id="23" src="2" tgt="8" wght="0.83499771744796725" />
        <Con id="24" src="3" tgt="4" wght="3.3429472615015596" />
        <Con id="25" src="3" tgt="5" wght="-2.7839405891755553" />
        <Con id="26" src="3" tgt="6" wght="-1.8888620373831522" />
        <Con id="27" src="3" tgt="7" wght="-1.7786707028750059" />
        <Con id="28" src="3" tgt="8" wght="-1.7313607254135821" />
      </Connections>
    </Network>
  </Networks>
</Root>