<?xml version="1.0" encoding="utf-8"?>
<Root>
  <ActivationFunctions>
    <Fn id="0" name="Linear" prob="0.1" />
    <Fn id="1" name="Sine" prob="0.1" />
    <Fn id="2" name="ArcTan" prob="0.1" />
    <Fn id="3" name="BipolarGaussian" prob="0.1" />
    <Fn id="4" name="BipolarSigmoid" prob="0.1" />
    <Fn id="5" name="LogisticFunction" prob="0.1" />
    <Fn id="6" name="QuadraticSigmoid" prob="0.1" />
    <Fn id="7" name="TanH" prob="0.1" />
    <Fn id="8" name="ArcSinH" prob="0.1" />
    <Fn id="9" name="ReLU" prob="0.1" />
  </ActivationFunctions>
  <Networks>
    <Network id="1" birthGen="0" fitness="0">
      <Nodes>
        <Node type="bias" id="0" fnId="0" />
        <Node type="in" id="1" fnId="0" />
        <Node type="in" id="2" fnId="0" />
        <Node type="in" id="3" fnId="0" />
        <Node type="out" id="4" fnId="0" />
        <Node type="out" id="5" fnId="0" />
        <Node type="out" id="6" fnId="0" />
        <Node type="out" id="7" fnId="0" />
        <Node type="out" id="8" fnId="0" />
      </Nodes>
      <Connections>
        <Con id="9" src="0" tgt="4" wght="2.176215855486844" />
        <Con id="10" src="0" tgt="5" wght="-1.0412778657518007" />
        <Con id="11" src="0" tgt="6" wght="-1.7830840021548888" />
        <Con id="12" src="0" tgt="7" wght="-2.2612367863478386" />
        <Con id="13" src="0" tgt="8" wght="4.7491915025803833" />
        <Con id="14" src="1" tgt="4" wght="4.9369785316129287" />
        <Con id="15" src="1" tgt="5" wght="0.6157778843399031" />
        <Con id="16" src="1" tgt="6" wght="-4.7741895692460465" />
        <Con id="17" src="1" tgt="7" wght="2.4947948075601323" />
        <Con id="18" src="1" tgt="8" wght="2.5650471105264372" />
        <Con id="19" src="2" tgt="4" wght="-3.1199040986864013" />
        <Con id="20" src="2" tgt="5" wght="1.9783443472351703" />
        <Con id="21" src="2" tgt="6" wght="-0.23099186623487422" />
        <Con id="22" src="2" tgt="7" wght="-3.3231493669501511" />
        <Con id="23" src="2" tgt="8" wght="-1.4239472307479739" />
        <Con id="24" src="3" tgt="4" wght="-0.18516128281098498" />
        <Con id="25" src="3" tgt="5" wght="-1.67121449426754" />
        <Con id="26" src="3" tgt="6" wght="-3.744248661174101" />
        <Con id="27" src="3" tgt="7" wght="-2.3519206955176242" />
        <Con id="28" src="3" tgt="8" wght="-4.972655409949887" />
      </Connections>
    </Network>
  </Networks>
</Root>