<?xml version="1.0" encoding="utf-8"?>
<Root>
  <ActivationFunctions>
    <Fn id="0" name="Linear" prob="0.1" />
    <Fn id="1" name="Sine" prob="0.1" />
    <Fn id="2" name="ArcTan" prob="0.1" />
    <Fn id="3" name="BipolarGaussian" prob="0.1" />
    <Fn id="4" name="BipolarSigmoid" prob="0.1" />
    <Fn id="5" name="LogisticFunction" prob="0.1" />
    <Fn id="6" name="QuadraticSigmoid" prob="0.1" />
    <Fn id="7" name="TanH" prob="0.1" />
    <Fn id="8" name="ArcSinH" prob="0.1" />
    <Fn id="9" name="ReLU" prob="0.1" />
  </ActivationFunctions>
  <Networks>
    <Network id="3" birthGen="0" fitness="0">
      <Nodes>
        <Node type="bias" id="0" fnId="0" />
        <Node type="in" id="1" fnId="0" />
        <Node type="in" id="2" fnId="0" />
        <Node type="in" id="3" fnId="0" />
        <Node type="out" id="4" fnId="0" />
        <Node type="out" id="5" fnId="0" />
        <Node type="out" id="6" fnId="0" />
        <Node type="out" id="7" fnId="0" />
        <Node type="out" id="8" fnId="0" />
      </Nodes>
      <Connections>
        <Con id="9" src="0" tgt="4" wght="1.5291348644533098" />
        <Con id="10" src="0" tgt="5" wght="3.92754663687078" />
        <Con id="11" src="0" tgt="6" wght="-4.3956180590936427" />
        <Con id="12" src="0" tgt="7" wght="-3.5310853262562389" />
        <Con id="14" src="1" tgt="4" wght="4.2553906689958207" />
        <Con id="15" src="1" tgt="5" wght="4.6881663089412049" />
        <Con id="16" src="1" tgt="6" wght="2.8303508172328193" />
        <Con id="17" src="1" tgt="7" wght="-4.4914016913041905" />
        <Con id="18" src="1" tgt="8" wght="-4.7993812985694184" />
        <Con id="19" src="2" tgt="4" wght="1.7774217247524426" />
        <Con id="20" src="2" tgt="5" wght="3.0734950544006634" />
        <Con id="21" src="2" tgt="6" wght="3.70928445316252" />
        <Con id="22" src="2" tgt="7" wght="-2.9531633244456534" />
        <Con id="23" src="2" tgt="8" wght="-1.0615181853262012" />
        <Con id="24" src="3" tgt="4" wght="2.425921729922127" />
        <Con id="25" src="3" tgt="5" wght="1.1321349279023452" />
        <Con id="26" src="3" tgt="6" wght="-3.3471715726967313" />
        <Con id="27" src="3" tgt="7" wght="-0.55358099874713851" />
        <Con id="28" src="3" tgt="8" wght="2.6478464434915292" />
      </Connections>
    </Network>
  </Networks>
</Root>