<?xml version="1.0" encoding="utf-8"?>
<Root>
  <ActivationFunctions>
    <Fn id="0" name="Linear" prob="0.1" />
    <Fn id="1" name="Sine" prob="0.1" />
    <Fn id="2" name="ArcTan" prob="0.1" />
    <Fn id="3" name="BipolarGaussian" prob="0.1" />
    <Fn id="4" name="BipolarSigmoid" prob="0.1" />
    <Fn id="5" name="LogisticFunction" prob="0.1" />
    <Fn id="6" name="QuadraticSigmoid" prob="0.1" />
    <Fn id="7" name="TanH" prob="0.1" />
    <Fn id="8" name="ArcSinH" prob="0.1" />
    <Fn id="9" name="ReLU" prob="0.1" />
  </ActivationFunctions>
  <Networks>
    <Network id="4" birthGen="0" fitness="0">
      <Nodes>
        <Node type="bias" id="0" fnId="0" />
        <Node type="in" id="1" fnId="0" />
        <Node type="in" id="2" fnId="0" />
        <Node type="in" id="3" fnId="0" />
        <Node type="out" id="4" fnId="0" />
        <Node type="out" id="5" fnId="0" />
        <Node type="out" id="6" fnId="0" />
        <Node type="out" id="7" fnId="0" />
        <Node type="out" id="8" fnId="0" />
      </Nodes>
      <Connections>
        <Con id="9" src="0" tgt="4" wght="-3.2731992138608312" />
        <Con id="10" src="0" tgt="5" wght="-1.7132949268875064" />
        <Con id="11" src="0" tgt="6" wght="2.1541514169728915" />
        <Con id="12" src="0" tgt="7" wght="-4.1738683923482593" />
        <Con id="13" src="0" tgt="8" wght="-2.260655201408428" />
        <Con id="14" src="1" tgt="4" wght="3.46077091248464" />
        <Con id="15" src="1" tgt="5" wght="-4.6700214862966929" />
        <Con id="16" src="1" tgt="6" wght="4.8290549000909175" />
        <Con id="17" src="1" tgt="7" wght="0.379049480117325" />
        <Con id="18" src="1" tgt="8" wght="2.4273339729844245" />
        <Con id="19" src="2" tgt="4" wght="-2.7977565918700495" />
        <Con id="20" src="2" tgt="5" wght="2.9275183915889946" />
        <Con id="21" src="2" tgt="6" wght="-1.6115440472801679" />
        <Con id="22" src="2" tgt="7" wght="4.8300156854774343" />
        <Con id="23" src="2" tgt="8" wght="-2.1144254630579526" />
        <Con id="24" src="3" tgt="4" wght="4.13549672644821" />
        <Con id="25" src="3" tgt="5" wght="0.16120756147020465" />
        <Con id="26" src="3" tgt="6" wght="-4.7179183345899087" />
        <Con id="27" src="3" tgt="7" wght="2.88240693422662" />
        <Con id="28" src="3" tgt="8" wght="2.7892209906145213" />
      </Connections>
    </Network>
  </Networks>
</Root>