<?xml version="1.0" encoding="utf-8"?>
<Root>
  <ActivationFunctions>
    <Fn id="0" name="Linear" prob="0.1" />
    <Fn id="1" name="Sine" prob="0.1" />
    <Fn id="2" name="ArcTan" prob="0.1" />
    <Fn id="3" name="BipolarGaussian" prob="0.1" />
    <Fn id="4" name="BipolarSigmoid" prob="0.1" />
    <Fn id="5" name="LogisticFunction" prob="0.1" />
    <Fn id="6" name="QuadraticSigmoid" prob="0.1" />
    <Fn id="7" name="TanH" prob="0.1" />
    <Fn id="8" name="ArcSinH" prob="0.1" />
    <Fn id="9" name="ReLU" prob="0.1" />
  </ActivationFunctions>
  <Networks>
    <Network id="0" birthGen="0" fitness="0">
      <Nodes>
        <Node type="bias" id="0" fnId="0" />
        <Node type="in" id="1" fnId="0" />
        <Node type="in" id="2" fnId="0" />
        <Node type="in" id="3" fnId="0" />
        <Node type="out" id="4" fnId="0" />
        <Node type="out" id="5" fnId="0" />
        <Node type="out" id="6" fnId="0" />
        <Node type="out" id="7" fnId="0" />
        <Node type="out" id="8" fnId="0" />
      </Nodes>
      <Connections>
        <Con id="9" src="0" tgt="4" wght="1.4736766086841269" />
        <Con id="10" src="0" tgt="5" wght="-1.7100847902341998" />
        <Con id="11" src="0" tgt="6" wght="-2.0978292237047445" />
        <Con id="12" src="0" tgt="7" wght="1.60470072188308" />
        <Con id="13" src="0" tgt="8" wght="0.24468018031908123" />
        <Con id="14" src="1" tgt="4" wght="4.0383079054366942" />
        <Con id="15" src="1" tgt="5" wght="4.9734024527159608" />
        <Con id="16" src="1" tgt="6" wght="2.994948597470751" />
        <Con id="17" src="1" tgt="7" wght="-0.69689395484529126" />
        <Con id="18" src="1" tgt="8" wght="4.2140882806894471" />
        <Con id="19" src="2" tgt="4" wght="-4.29483518484855" />
        <Con id="20" src="2" tgt="5" wght="4.0861465159198742" />
        <Con id="21" src="2" tgt="6" wght="-2.7693103312408685" />
        <Con id="22" src="2" tgt="7" wght="3.6429832160579076" />
        <Con id="23" src="2" tgt="8" wght="1.0054525904736" />
        <Con id="25" src="3" tgt="5" wght="1.5966824988870798" />
        <Con id="26" src="3" tgt="6" wght="-1.3598473712106396" />
        <Con id="27" src="3" tgt="7" wght="0.34553314244076705" />
        <Con id="28" src="3" tgt="8" wght="-0.25808738356584926" />
      </Connections>
    </Network>
  </Networks>
</Root>