<?xml version="1.0" encoding="utf-8"?>
<Root>
  <ActivationFunctions>
    <Fn id="0" name="Linear" prob="0.1" />
    <Fn id="1" name="Sine" prob="0.1" />
    <Fn id="2" name="ArcTan" prob="0.1" />
    <Fn id="3" name="BipolarGaussian" prob="0.1" />
    <Fn id="4" name="BipolarSigmoid" prob="0.1" />
    <Fn id="5" name="LogisticFunction" prob="0.1" />
    <Fn id="6" name="QuadraticSigmoid" prob="0.1" />
    <Fn id="7" name="TanH" prob="0.1" />
    <Fn id="8" name="ArcSinH" prob="0.1" />
    <Fn id="9" name="ReLU" prob="0.1" />
  </ActivationFunctions>
  <Networks>
    <Network id="2" birthGen="0" fitness="0">
      <Nodes>
        <Node type="bias" id="0" fnId="0" />
        <Node type="in" id="1" fnId="0" />
        <Node type="in" id="2" fnId="0" />
        <Node type="in" id="3" fnId="0" />
        <Node type="out" id="4" fnId="0" />
        <Node type="out" id="5" fnId="0" />
        <Node type="out" id="6" fnId="0" />
        <Node type="out" id="7" fnId="0" />
        <Node type="out" id="8" fnId="0" />
      </Nodes>
      <Connections>
        <Con id="9" src="0" tgt="4" wght="3.8472065536050151" />
        <Con id="10" src="0" tgt="5" wght="-1.6123079800838469" />
        <Con id="11" src="0" tgt="6" wght="-2.6619679997122061" />
        <Con id="12" src="0" tgt="7" wght="2.172127789388556" />
        <Con id="13" src="0" tgt="8" wght="4.9757841462810024" />
        <Con id="14" src="1" tgt="4" wght="4.7150946763873547" />
        <Con id="15" src="1" tgt="5" wght="4.0195225452118342" />
        <Con id="16" src="1" tgt="6" wght="2.0035177164847653" />
        <Con id="17" src="1" tgt="7" wght="4.4687994526687174" />
        <Con id="18" src="1" tgt="8" wght="-0.7251564291084811" />
        <Con id="20" src="2" tgt="5" wght="3.5296406117595804" />
        <Con id="21" src="2" tgt="6" wght="-4.5473021905310151" />
        <Con id="22" src="2" tgt="7" wght="-1.4784407567727342" />
        <Con id="23" src="2" tgt="8" wght="3.6350950463982579" />
        <Con id="24" src="3" tgt="4" wght="-4.6565997423257315" />
        <Con id="25" src="3" tgt="5" wght="-4.7839630298812281" />
        <Con id="26" src="3" tgt="6" wght="-0.14228763833792013" />
        <Con id="27" src="3" tgt="7" wght="-3.7138609334932027" />
        <Con id="28" src="3" tgt="8" wght="4.4045020604746909" />
      </Connections>
    </Network>
  </Networks>
</Root>