<?xml version="1.0" encoding="utf-8"?>
<Root>
  <ActivationFunctions>
    <Fn id="0" name="Linear" prob="0.1" />
    <Fn id="1" name="Sine" prob="0.1" />
    <Fn id="2" name="ArcTan" prob="0.1" />
    <Fn id="3" name="BipolarGaussian" prob="0.1" />
    <Fn id="4" name="BipolarSigmoid" prob="0.1" />
    <Fn id="5" name="LogisticFunction" prob="0.1" />
    <Fn id="6" name="QuadraticSigmoid" prob="0.1" />
    <Fn id="7" name="TanH" prob="0.1" />
    <Fn id="8" name="ArcSinH" prob="0.1" />
    <Fn id="9" name="ReLU" prob="0.1" />
  </ActivationFunctions>
  <Networks>
    <Network id="2" birthGen="0" fitness="0">
      <Nodes>
        <Node type="bias" id="0" fnId="0" />
        <Node type="in" id="1" fnId="0" />
        <Node type="in" id="2" fnId="0" />
        <Node type="in" id="3" fnId="0" />
        <Node type="out" id="4" fnId="0" />
        <Node type="out" id="5" fnId="0" />
        <Node type="out" id="6" fnId="0" />
        <Node type="out" id="7" fnId="0" />
        <Node type="out" id="8" fnId="0" />
      </Nodes>
      <Connections>
        <Con id="9" src="0" tgt="4" wght="-2.0329181703938204" />
        <Con id="10" src="0" tgt="5" wght="-1.3746980348421323" />
        <Con id="11" src="0" tgt="6" wght="1.8849883884149732" />
        <Con id="12" src="0" tgt="7" wght="1.1809938162882228" />
        <Con id="13" src="0" tgt="8" wght="2.354438021617884" />
        <Con id="14" src="1" tgt="4" wght="-1.4152544733715" />
        <Con id="15" src="1" tgt="5" wght="4.260219966222742" />
        <Con id="16" src="1" tgt="6" wght="-3.5075035923706279" />
        <Con id="17" src="1" tgt="7" wght="3.7976665211226335" />
        <Con id="18" src="1" tgt="8" wght="-4.2336118375178877" />
        <Con id="19" src="2" tgt="4" wght="4.7615077995523478" />
        <Con id="20" src="2" tgt="5" wght="-3.696732382837169" />
        <Con id="21" src="2" tgt="6" wght="1.4253344601586937" />
        <Con id="22" src="2" tgt="7" wght="-1.0473742528295849" />
        <Con id="23" src="2" tgt="8" wght="-1.2365473922979808" />
        <Con id="24" src="3" tgt="4" wght="3.2380704711421284" />
        <Con id="25" src="3" tgt="5" wght="1.9876882482103952" />
        <Con id="26" src="3" tgt="6" wght="-0.093458312316316849" />
        <Con id="27" src="3" tgt="7" wght="-4.953756719650622" />
        <Con id="28" src="3" tgt="8" wght="0.15409220967359194" />
      </Connections>
    </Network>
  </Networks>
</Root>