<?xml version="1.0" encoding="utf-8"?>
<Root>
  <ActivationFunctions>
    <Fn id="0" name="Linear" prob="0.1" />
    <Fn id="1" name="Sine" prob="0.1" />
    <Fn id="2" name="ArcTan" prob="0.1" />
    <Fn id="3" name="BipolarGaussian" prob="0.1" />
    <Fn id="4" name="BipolarSigmoid" prob="0.1" />
    <Fn id="5" name="LogisticFunction" prob="0.1" />
    <Fn id="6" name="QuadraticSigmoid" prob="0.1" />
    <Fn id="7" name="TanH" prob="0.1" />
    <Fn id="8" name="ArcSinH" prob="0.1" />
    <Fn id="9" name="ReLU" prob="0.1" />
  </ActivationFunctions>
  <Networks>
    <Network id="1" birthGen="0" fitness="0">
      <Nodes>
        <Node type="bias" id="0" fnId="0" />
        <Node type="in" id="1" fnId="0" />
        <Node type="in" id="2" fnId="0" />
        <Node type="in" id="3" fnId="0" />
        <Node type="out" id="4" fnId="0" />
        <Node type="out" id="5" fnId="0" />
        <Node type="out" id="6" fnId="0" />
        <Node type="out" id="7" fnId="0" />
        <Node type="out" id="8" fnId="0" />
      </Nodes>
      <Connections>
        <Con id="9" src="0" tgt="4" wght="3.1517134721431717" />
        <Con id="10" src="0" tgt="5" wght="-0.43573775707085094" />
        <Con id="11" src="0" tgt="6" wght="-0.94494509688993311" />
        <Con id="12" src="0" tgt="7" wght="-0.33416891337221366" />
        <Con id="13" src="0" tgt="8" wght="3.6059532320956436" />
        <Con id="14" src="1" tgt="4" wght="-4.9218762012968149" />
        <Con id="15" src="1" tgt="5" wght="0.67215263109139833" />
        <Con id="16" src="1" tgt="6" wght="-1.8727492749501407" />
        <Con id="17" src="1" tgt="7" wght="3.0310828030107793" />
        <Con id="18" src="1" tgt="8" wght="-0.90641851813582308" />
        <Con id="19" src="2" tgt="4" wght="-0.624954622070284" />
        <Con id="20" src="2" tgt="5" wght="-0.78636365001872544" />
        <Con id="21" src="2" tgt="6" wght="2.0485043135591576" />
        <Con id="22" src="2" tgt="7" wght="-2.1608109146548591" />
        <Con id="23" src="2" tgt="8" wght="0.93446157068839519" />
        <Con id="24" src="3" tgt="4" wght="-1.0421508751108333" />
        <Con id="25" src="3" tgt="5" wght="-1.9499289710451595" />
        <Con id="26" src="3" tgt="6" wght="-4.79836238485478" />
        <Con id="27" src="3" tgt="7" wght="-1.4031109408818343" />
        <Con id="28" src="3" tgt="8" wght="-3.0856967757436293" />
      </Connections>
    </Network>
  </Networks>
</Root>