<?xml version="1.0" encoding="utf-8"?>
<Root>
  <ActivationFunctions>
    <Fn id="0" name="Linear" prob="0.1" />
    <Fn id="1" name="Sine" prob="0.1" />
    <Fn id="2" name="ArcTan" prob="0.1" />
    <Fn id="3" name="BipolarGaussian" prob="0.1" />
    <Fn id="4" name="BipolarSigmoid" prob="0.1" />
    <Fn id="5" name="LogisticFunction" prob="0.1" />
    <Fn id="6" name="QuadraticSigmoid" prob="0.1" />
    <Fn id="7" name="TanH" prob="0.1" />
    <Fn id="8" name="ArcSinH" prob="0.1" />
    <Fn id="9" name="ReLU" prob="0.1" />
  </ActivationFunctions>
  <Networks>
    <Network id="5" birthGen="0" fitness="0">
      <Nodes>
        <Node type="bias" id="0" fnId="0" />
        <Node type="in" id="1" fnId="0" />
        <Node type="in" id="2" fnId="0" />
        <Node type="in" id="3" fnId="0" />
        <Node type="out" id="4" fnId="0" />
        <Node type="out" id="5" fnId="0" />
        <Node type="out" id="6" fnId="0" />
        <Node type="out" id="7" fnId="0" />
        <Node type="out" id="8" fnId="0" />
      </Nodes>
      <Connections>
        <Con id="9" src="0" tgt="4" wght="-0.85255353290024871" />
        <Con id="10" src="0" tgt="5" wght="-4.39155071051907" />
        <Con id="11" src="0" tgt="6" wght="3.2057492026456256" />
        <Con id="12" src="0" tgt="7" wght="-3.5074109324195257" />
        <Con id="13" src="0" tgt="8" wght="4.7735117963279556" />
        <Con id="14" src="1" tgt="4" wght="2.3463141871482565" />
        <Con id="15" src="1" tgt="5" wght="-2.1327264495110123" />
        <Con id="16" src="1" tgt="6" wght="-2.9969228138462878" />
        <Con id="17" src="1" tgt="7" wght="-4.4091722470656523" />
        <Con id="18" src="1" tgt="8" wght="-3.9523061586384403" />
        <Con id="19" src="2" tgt="4" wght="-1.7440211377316073" />
        <Con id="20" src="2" tgt="5" wght="1.8054678087607634" />
        <Con id="21" src="2" tgt="6" wght="1.4921685839629839" />
        <Con id="22" src="2" tgt="7" wght="-2.1757590760943879" />
        <Con id="23" src="2" tgt="8" wght="-2.6585984090112036" />
        <Con id="24" src="3" tgt="4" wght="3.6753253450504642" />
        <Con id="25" src="3" tgt="5" wght="3.4701634986335463" />
        <Con id="26" src="3" tgt="6" wght="0.95394364698854539" />
        <Con id="27" src="3" tgt="7" wght="-4.0372814909612966" />
        <Con id="28" src="3" tgt="8" wght="-1.4428335319852825" />
      </Connections>
    </Network>
  </Networks>
</Root>