<?xml version="1.0" encoding="utf-8"?>
<Root>
  <ActivationFunctions>
    <Fn id="0" name="Linear" prob="0.1" />
    <Fn id="1" name="Sine" prob="0.1" />
    <Fn id="2" name="ArcTan" prob="0.1" />
    <Fn id="3" name="BipolarGaussian" prob="0.1" />
    <Fn id="4" name="BipolarSigmoid" prob="0.1" />
    <Fn id="5" name="LogisticFunction" prob="0.1" />
    <Fn id="6" name="QuadraticSigmoid" prob="0.1" />
    <Fn id="7" name="TanH" prob="0.1" />
    <Fn id="8" name="ArcSinH" prob="0.1" />
    <Fn id="9" name="ReLU" prob="0.1" />
  </ActivationFunctions>
  <Networks>
    <Network id="0" birthGen="0" fitness="0">
      <Nodes>
        <Node type="bias" id="0" fnId="0" />
        <Node type="in" id="1" fnId="0" />
        <Node type="in" id="2" fnId="0" />
        <Node type="in" id="3" fnId="0" />
        <Node type="out" id="4" fnId="0" />
        <Node type="out" id="5" fnId="0" />
        <Node type="out" id="6" fnId="0" />
        <Node type="out" id="7" fnId="0" />
        <Node type="out" id="8" fnId="0" />
      </Nodes>
      <Connections>
        <Con id="9" src="0" tgt="4" wght="-0.46795506119915342" />
        <Con id="10" src="0" tgt="5" wght="4.9188603963141961" />
        <Con id="11" src="0" tgt="6" wght="4.13468709354298" />
        <Con id="12" src="0" tgt="7" wght="-1.0417183655369966" />
        <Con id="13" src="0" tgt="8" wght="3.3703457806506067" />
        <Con id="14" src="1" tgt="4" wght="3.7790091672601998" />
        <Con id="15" src="1" tgt="5" wght="-1.1730138667422518" />
        <Con id="16" src="1" tgt="6" wght="-1.9507611906342126" />
        <Con id="17" src="1" tgt="7" wght="4.6115350569777647" />
        <Con id="18" src="1" tgt="8" wght="-3.5467723578414043" />
        <Con id="19" src="2" tgt="4" wght="-0.74888563065250491" />
        <Con id="20" src="2" tgt="5" wght="0.93404298039395317" />
        <Con id="21" src="2" tgt="6" wght="2.8792803687590576" />
        <Con id="22" src="2" tgt="7" wght="-2.4002035649357834" />
        <Con id="23" src="2" tgt="8" wght="4.1435155345971006" />
        <Con id="24" src="3" tgt="4" wght="3.3441132892912675" />
        <Con id="25" src="3" tgt="5" wght="-2.4987630775629546" />
        <Con id="26" src="3" tgt="6" wght="-2.3057920626750761" />
        <Con id="27" src="3" tgt="7" wght="-1.8953580570552997" />
        <Con id="28" src="3" tgt="8" wght="-4.0591696027451949" />
      </Connections>
    </Network>
  </Networks>
</Root>