<?xml version="1.0" encoding="utf-8"?>
<Root>
  <ActivationFunctions>
    <Fn id="0" name="Linear" prob="0.1" />
    <Fn id="1" name="Sine" prob="0.1" />
    <Fn id="2" name="ArcTan" prob="0.1" />
    <Fn id="3" name="BipolarGaussian" prob="0.1" />
    <Fn id="4" name="BipolarSigmoid" prob="0.1" />
    <Fn id="5" name="LogisticFunction" prob="0.1" />
    <Fn id="6" name="QuadraticSigmoid" prob="0.1" />
    <Fn id="7" name="TanH" prob="0.1" />
    <Fn id="8" name="ArcSinH" prob="0.1" />
    <Fn id="9" name="ReLU" prob="0.1" />
  </ActivationFunctions>
  <Networks>
    <Network id="3" birthGen="0" fitness="0">
      <Nodes>
        <Node type="bias" id="0" fnId="0" />
        <Node type="in" id="1" fnId="0" />
        <Node type="in" id="2" fnId="0" />
        <Node type="in" id="3" fnId="0" />
        <Node type="out" id="4" fnId="0" />
        <Node type="out" id="5" fnId="0" />
        <Node type="out" id="6" fnId="0" />
        <Node type="out" id="7" fnId="0" />
        <Node type="out" id="8" fnId="0" />
      </Nodes>
      <Connections>
        <Con id="9" src="0" tgt="4" wght="0.51500397699538736" />
        <Con id="11" src="0" tgt="6" wght="0.58915475625269775" />
        <Con id="12" src="0" tgt="7" wght="-1.015841273013286" />
        <Con id="13" src="0" tgt="8" wght="-1.1411480140966823" />
        <Con id="14" src="1" tgt="4" wght="-4.9472682036057982" />
        <Con id="15" src="1" tgt="5" wght="3.3137135828056987" />
        <Con id="16" src="1" tgt="6" wght="4.1959352400242924" />
        <Con id="17" src="1" tgt="7" wght="4.5336450723424582" />
        <Con id="18" src="1" tgt="8" wght="-2.6575250928572425" />
        <Con id="19" src="2" tgt="4" wght="1.13920795071754" />
        <Con id="20" src="2" tgt="5" wght="3.1401469931828419" />
        <Con id="21" src="2" tgt="6" wght="-3.3364303867376535" />
        <Con id="22" src="2" tgt="7" wght="-0.8935557026694263" />
        <Con id="23" src="2" tgt="8" wght="-0.78009209094677012" />
        <Con id="24" src="3" tgt="4" wght="-1.1297076163128172" />
        <Con id="25" src="3" tgt="5" wght="-1.0851125317380328" />
        <Con id="26" src="3" tgt="6" wght="-0.024182863422267387" />
        <Con id="27" src="3" tgt="7" wght="-2.3954721937004875" />
        <Con id="28" src="3" tgt="8" wght="4.4062220006830044" />
      </Connections>
    </Network>
  </Networks>
</Root>