<?xml version="1.0" encoding="utf-8"?>
<Root>
  <ActivationFunctions>
    <Fn id="0" name="Linear" prob="0.1" />
    <Fn id="1" name="Sine" prob="0.1" />
    <Fn id="2" name="ArcTan" prob="0.1" />
    <Fn id="3" name="BipolarGaussian" prob="0.1" />
    <Fn id="4" name="BipolarSigmoid" prob="0.1" />
    <Fn id="5" name="LogisticFunction" prob="0.1" />
    <Fn id="6" name="QuadraticSigmoid" prob="0.1" />
    <Fn id="7" name="TanH" prob="0.1" />
    <Fn id="8" name="ArcSinH" prob="0.1" />
    <Fn id="9" name="ReLU" prob="0.1" />
  </ActivationFunctions>
  <Networks>
    <Network id="3" birthGen="0" fitness="0">
      <Nodes>
        <Node type="bias" id="0" fnId="0" />
        <Node type="in" id="1" fnId="0" />
        <Node type="in" id="2" fnId="0" />
        <Node type="in" id="3" fnId="0" />
        <Node type="out" id="4" fnId="0" />
        <Node type="out" id="5" fnId="0" />
        <Node type="out" id="6" fnId="0" />
        <Node type="out" id="7" fnId="0" />
        <Node type="out" id="8" fnId="0" />
      </Nodes>
      <Connections>
        <Con id="9" src="0" tgt="4" wght="-3.4363965089940174" />
        <Con id="10" src="0" tgt="5" wght="-2.6822343800161352" />
        <Con id="11" src="0" tgt="6" wght="3.0385513227743988" />
        <Con id="12" src="0" tgt="7" wght="0.32308098328468482" />
        <Con id="13" src="0" tgt="8" wght="-2.1273831972087933" />
        <Con id="14" src="1" tgt="4" wght="4.7371275229753609" />
        <Con id="15" src="1" tgt="5" wght="-0.27665243970800057" />
        <Con id="16" src="1" tgt="6" wght="0.069093008306228" />
        <Con id="17" src="1" tgt="7" wght="-2.6321304450766814" />
        <Con id="18" src="1" tgt="8" wght="4.7953119842861955" />
        <Con id="19" src="2" tgt="4" wght="3.8928018760226148" />
        <Con id="20" src="2" tgt="5" wght="-2.0276159497341761" />
        <Con id="21" src="2" tgt="6" wght="-2.5022915426667836" />
        <Con id="22" src="2" tgt="7" wght="3.5109262436062294" />
        <Con id="23" src="2" tgt="8" wght="-1.3598958181294807" />
        <Con id="24" src="3" tgt="4" wght="1.03708237558362" />
        <Con id="25" src="3" tgt="5" wght="-4.3817172685539436" />
        <Con id="26" src="3" tgt="6" wght="-0.29449769132752879" />
        <Con id="27" src="3" tgt="7" wght="-4.15226078495893" />
        <Con id="28" src="3" tgt="8" wght="0.74663241268248748" />
      </Connections>
    </Network>
  </Networks>
</Root>