<?xml version="1.0" encoding="utf-8"?>
<Root>
  <ActivationFunctions>
    <Fn id="0" name="Linear" prob="0.1" />
    <Fn id="1" name="Sine" prob="0.1" />
    <Fn id="2" name="ArcTan" prob="0.1" />
    <Fn id="3" name="BipolarGaussian" prob="0.1" />
    <Fn id="4" name="BipolarSigmoid" prob="0.1" />
    <Fn id="5" name="LogisticFunction" prob="0.1" />
    <Fn id="6" name="QuadraticSigmoid" prob="0.1" />
    <Fn id="7" name="TanH" prob="0.1" />
    <Fn id="8" name="ArcSinH" prob="0.1" />
    <Fn id="9" name="ReLU" prob="0.1" />
  </ActivationFunctions>
  <Networks>
    <Network id="0" birthGen="0" fitness="0">
      <Nodes>
        <Node type="bias" id="0" fnId="0" />
        <Node type="in" id="1" fnId="0" />
        <Node type="in" id="2" fnId="0" />
        <Node type="in" id="3" fnId="0" />
        <Node type="out" id="4" fnId="0" />
        <Node type="out" id="5" fnId="0" />
        <Node type="out" id="6" fnId="0" />
        <Node type="out" id="7" fnId="0" />
        <Node type="out" id="8" fnId="0" />
      </Nodes>
      <Connections>
        <Con id="9" src="0" tgt="4" wght="3.4938009760001454" />
        <Con id="10" src="0" tgt="5" wght="2.1259024046788388" />
        <Con id="11" src="0" tgt="6" wght="4.5293380011546427" />
        <Con id="12" src="0" tgt="7" wght="1.9979278910317055" />
        <Con id="13" src="0" tgt="8" wght="-0.79148965612511613" />
        <Con id="14" src="1" tgt="4" wght="3.5122948491976977" />
        <Con id="15" src="1" tgt="5" wght="-3.198823482025527" />
        <Con id="16" src="1" tgt="6" wght="2.1473262301323128" />
        <Con id="17" src="1" tgt="7" wght="1.7425634386845268" />
        <Con id="18" src="1" tgt="8" wght="3.9483466221739438" />
        <Con id="19" src="2" tgt="4" wght="-1.6550624313456197" />
        <Con id="20" src="2" tgt="5" wght="-0.33683723196781812" />
        <Con id="21" src="2" tgt="6" wght="-1.7830080821808125" />
        <Con id="22" src="2" tgt="7" wght="2.2765946155101258" />
        <Con id="23" src="2" tgt="8" wght="4.3727600512149873" />
        <Con id="24" src="3" tgt="4" wght="4.7638869614915649" />
        <Con id="25" src="3" tgt="5" wght="0.1498673896104441" />
        <Con id="26" src="3" tgt="6" wght="-0.3708351606679694" />
        <Con id="27" src="3" tgt="7" wght="-0.57802147175924357" />
        <Con id="28" src="3" tgt="8" wght="3.1555492336317759" />
      </Connections>
    </Network>
  </Networks>
</Root>