<?xml version="1.0" encoding="utf-8"?>
<Root>
  <ActivationFunctions>
    <Fn id="0" name="Linear" prob="0.1" />
    <Fn id="1" name="Sine" prob="0.1" />
    <Fn id="2" name="ArcTan" prob="0.1" />
    <Fn id="3" name="BipolarGaussian" prob="0.1" />
    <Fn id="4" name="BipolarSigmoid" prob="0.1" />
    <Fn id="5" name="LogisticFunction" prob="0.1" />
    <Fn id="6" name="QuadraticSigmoid" prob="0.1" />
    <Fn id="7" name="TanH" prob="0.1" />
    <Fn id="8" name="ArcSinH" prob="0.1" />
    <Fn id="9" name="ReLU" prob="0.1" />
  </ActivationFunctions>
  <Networks>
    <Network id="0" birthGen="0" fitness="0">
      <Nodes>
        <Node type="bias" id="0" fnId="0" />
        <Node type="in" id="1" fnId="0" />
        <Node type="in" id="2" fnId="0" />
        <Node type="in" id="3" fnId="0" />
        <Node type="out" id="4" fnId="0" />
        <Node type="out" id="5" fnId="0" />
        <Node type="out" id="6" fnId="0" />
        <Node type="out" id="7" fnId="0" />
        <Node type="out" id="8" fnId="0" />
      </Nodes>
      <Connections>
        <Con id="9" src="0" tgt="4" wght="-0.00058013122635425241" />
        <Con id="10" src="0" tgt="5" wght="-4.4852156975666526" />
        <Con id="11" src="0" tgt="6" wght="-3.55175518303262" />
        <Con id="12" src="0" tgt="7" wght="0.6433810020728592" />
        <Con id="13" src="0" tgt="8" wght="1.1835036205586957" />
        <Con id="14" src="1" tgt="4" wght="4.88719800484411" />
        <Con id="15" src="1" tgt="5" wght="4.1481217751121946" />
        <Con id="16" src="1" tgt="6" wght="-3.5444301569688621" />
        <Con id="17" src="1" tgt="7" wght="-4.7319742204098052" />
        <Con id="18" src="1" tgt="8" wght="-2.2251914054824118" />
        <Con id="19" src="2" tgt="4" wght="-4.1684273667723684" />
        <Con id="20" src="2" tgt="5" wght="4.3659419320750406" />
        <Con id="21" src="2" tgt="6" wght="-1.7403288769002045" />
        <Con id="22" src="2" tgt="7" wght="1.7706100747038289" />
        <Con id="23" src="2" tgt="8" wght="-1.481828926293276" />
        <Con id="24" src="3" tgt="4" wght="2.9265642694361316" />
        <Con id="25" src="3" tgt="5" wght="1.09253520639774" />
        <Con id="26" src="3" tgt="6" wght="-0.40129965415018121" />
        <Con id="27" src="3" tgt="7" wght="4.2045326570186417" />
        <Con id="28" src="3" tgt="8" wght="-0.047474595901518812" />
      </Connections>
    </Network>
  </Networks>
</Root>