<?xml version="1.0" encoding="utf-8"?>
<Root>
  <ActivationFunctions>
    <Fn id="0" name="Linear" prob="0.1" />
    <Fn id="1" name="Sine" prob="0.1" />
    <Fn id="2" name="ArcTan" prob="0.1" />
    <Fn id="3" name="BipolarGaussian" prob="0.1" />
    <Fn id="4" name="BipolarSigmoid" prob="0.1" />
    <Fn id="5" name="LogisticFunction" prob="0.1" />
    <Fn id="6" name="QuadraticSigmoid" prob="0.1" />
    <Fn id="7" name="TanH" prob="0.1" />
    <Fn id="8" name="ArcSinH" prob="0.1" />
    <Fn id="9" name="ReLU" prob="0.1" />
  </ActivationFunctions>
  <Networks>
    <Network id="3" birthGen="0" fitness="0">
      <Nodes>
        <Node type="bias" id="0" fnId="0" />
        <Node type="in" id="1" fnId="0" />
        <Node type="in" id="2" fnId="0" />
        <Node type="in" id="3" fnId="0" />
        <Node type="out" id="4" fnId="0" />
        <Node type="out" id="5" fnId="0" />
        <Node type="out" id="6" fnId="0" />
        <Node type="out" id="7" fnId="0" />
        <Node type="out" id="8" fnId="0" />
      </Nodes>
      <Connections>
        <Con id="9" src="0" tgt="4" wght="2.400011437851898" />
        <Con id="10" src="0" tgt="5" wght="-1.9258533790903842" />
        <Con id="11" src="0" tgt="6" wght="-3.4322872788454619" />
        <Con id="12" src="0" tgt="7" wght="0.7939067634737651" />
        <Con id="13" src="0" tgt="8" wght="0.15673404749978248" />
        <Con id="14" src="1" tgt="4" wght="4.1411175520720551" />
        <Con id="15" src="1" tgt="5" wght="-0.89112670702389929" />
        <Con id="16" src="1" tgt="6" wght="2.9163641064658288" />
        <Con id="17" src="1" tgt="7" wght="-0.3711464545611276" />
        <Con id="18" src="1" tgt="8" wght="-2.1571717406707593" />
        <Con id="19" src="2" tgt="4" wght="1.93240385377353" />
        <Con id="20" src="2" tgt="5" wght="2.164387455900636" />
        <Con id="21" src="2" tgt="6" wght="4.2778340113017865" />
        <Con id="22" src="2" tgt="7" wght="3.6334064112164119" />
        <Con id="23" src="2" tgt="8" wght="0.85686812142098723" />
        <Con id="24" src="3" tgt="4" wght="-2.9722532454767348" />
        <Con id="25" src="3" tgt="5" wght="1.787971503607213" />
        <Con id="26" src="3" tgt="6" wght="-3.8398230307351211" />
        <Con id="27" src="3" tgt="7" wght="1.25788106997335" />
        <Con id="28" src="3" tgt="8" wght="1.6133447182545213" />
      </Connections>
    </Network>
  </Networks>
</Root>